svm_type c_svc
kernel_type linear
nr_class 2
total_sv 3734
rho -0.049352
label -1 1
probA -1.61461
probB 0.104807
nr_sv 1870 1864
SV
4 2:0.51916935 4:1 5:1.3494382e-05 8:16 9:1 10:1 11:2 12:3 13:2 15:4 
4 2:0.64477549 4:1 5:1.3494382e-05 8:20 9:2 11:2 12:4 13:5 15:3 
4 0:1 1:1 2:0.50584074 4:1 5:1.3494382e-05 6:0.00010345898 8:28 9:5 10:2 11:3 12:5 13:9 14:1 15:3 
4 1:1 2:0.21418325 4:1 5:1.3494382e-05 6:0.0037417664 8:10 9:1 10:1 11:3 12:2 13:1 14:1 15:2 
4 0:1 1:1 2:0.24005869 4:1 5:1.3194507e-05 6:0.012277132 8:14 9:1 10:1 11:1 12:3 13:5 14:1 15:1 
4 2:0.34536534 4:1 5:1.2650983e-05 8:16 9:3 11:3 12:5 13:4 15:2 
4 0:1 1:1 2:0.37597694 3:1 4:1 5:1.3494382e-05 6:0.018070835 8:13 9:3 10:1 11:3 12:2 13:2 14:1 15:2 
4 2:0.42350558 4:1 5:9.4460676e-06 6:0.0028796082 8:10 9:1 11:2 12:2 13:2 14:1 
4 2:0.65131924 4:1 5:1.236985e-05 8:22 9:3 11:2 12:5 13:6 15:4 
4 2:0.20530192 4:1 5:1.3494382e-05 8:13 9:1 11:2 12:3 13:3 15:1 
4 2:0.49749354 5:7.871723e-06 8:8 9:1 10:1 11:3 12:2 13:1 15:1 
4 2:0.50459963 4:1 5:1.3494382e-05 8:14 9:3 10:1 11:4 12:3 13:2 15:4 
4 1:1 2:0.52924692 4:1 5:1.3494382e-05 8:9 9:1 11:2 12:3 13:3 15:1 
4 0:1 1:1 2:0.35584191 4:1 5:1.3494382e-05 6:0.0022933407 8:9 9:1 10:1 11:3 12:2 13:1 14:1 
4 0:1 1:1 2:0.59133871 4:1 5:1.3494382e-05 8:11 9:1 11:3 12:3 13:3 
4 2:0.45784158 4:1 5:1.1245319e-05 8:12 9:2 10:1 11:3 12:3 13:3 15:2 
4 2:0.45513979 4:1 5:1.3494382e-05 6:0.00041383591 8:13 9:1 11:2 12:3 13:3 14:1 15:3 
4 1:1 2:0.55387559 4:1 5:1.3494382e-05 6:0.01248405 8:24 9:2 11:3 12:5 13:5 14:1 15:4 
4 2:0.25138394 4:1 5:1.3494382e-05 6:0.0023105839 8:13 9:3 11:4 12:3 13:2 14:1 15:1 
4 0:1 2:0.45019659 4:1 5:1.3494382e-05 6:0.019226127 8:14 9:2 11:3 12:4 13:3 14:1 15:1 
4 2:0.43651641 4:1 5:1.3494382e-05 6:0.012518536 8:15 9:1 10:1 11:1 12:3 13:5 14:1 15:3 
4 0:1 1:1 2:0.5433419 4:1 5:1.3494382e-05 6:0.0039314412 8:27 9:4 10:1 11:4 12:5 13:5 14:1 15:5 
4 2:0.28584706 4:1 5:9.4460676e-06 8:12 9:4 11:2 12:3 13:2 15:1 
4 2:0.72865328 5:1.3494382e-05 6:0.029158189 8:7 9:1 11:2 12:3 13:1 14:1 
4 2:0.70277005 4:1 5:1.3494382e-05 8:21 9:3 10:1 11:4 12:4 13:5 15:1 
4 2:0.64829153 4:1 5:1.3494382e-05 8:25 9:3 10:1 11:3 12:7 13:5 15:4 
4 0:1 2:0.14354506 4:1 5:1.3494382e-05 6:0.00024140428 8:17 9:3 11:3 12:4 13:3 14:1 15:3 
4 2:0.39865232 4:1 5:1.3494382e-05 6:0.01177708 8:22 9:3 11:3 12:4 13:5 14:2 
4 2:0.59334347 4:1 5:9.4460676e-06 6:0.00072421285 8:15 9:1 10:1 11:3 12:5 13:2 14:1 15:1 
4 0:1 1:1 2:0.53024519 4:1 5:1.3494382e-05 8:25 9:3 10:1 11:2 12:7 13:5 15:3 
4 1:1 2:0.40417735 4:1 5:1.3494382e-05 6:0.019226127 8:38 9:4 10:2 11:4 12:8 13:8 14:1 15:4 
4 2:0.45389563 4:1 5:1.0870475e-05 6:0.015277442 8:19 9:2 11:3 12:5 13:3 14:2 15:4 
4 2:0.55493681 4:1 5:1.3494382e-05 6:0.003914198 8:12 9:1 10:1 11:2 12:2 13:3 14:1 15:1 
4 0:1 1:1 2:0.766632 4:1 5:1.3494382e-05 8:15 9:1 11:1 12:3 13:4 15:1 
4 2:0.647628 4:1 5:1.1695131e-05 8:26 9:3 10:1 11:2 12:5 13:6 15:2 
4 4:1 5:1.3494382e-05 8:12 9:2 11:1 12:4 13:6 
4 2:0.54903241 4:1 5:1.3119538e-05 6:5.1729489e-05 8:16 10:1 11:1 12:3 13:4 14:2 15:1 
4 0:1 1:1 4:1 5:1.3494382e-05 6:0.012147808 8:18 9:2 10:1 11:1 12:5 13:4 14:2 15:1 
4 2:0.41068913 4:1 5:1.236985e-05 8:26 9:4 10:1 11:3 12:8 13:7 15:3 
4 0:1 2:0.33795153 4:1 5:1.3494382e-05 6:8.6215815e-05 8:18 9:1 11:2 12:4 13:2 14:2 15:1 
4 0:1 1:1 2:0.43803925 4:1 5:1.3494382e-05 6:0.0037590096 8:7 9:1 11:3 12:1 13:1 14:1 15:1 
4 0:1 1:1 4:1 5:1.3494382e-05 8:11 9:1 11:1 12:3 13:4 
4 0:1 1:1 2:0.48375649 4:1 5:1.3494382e-05 8:15 9:2 11:4 12:5 13:2 15:2 
4 0:1 2:0.51262952 4:1 5:1.3494382e-05 6:0.01248405 8:8 9:1 10:1 11:2 12:1 13:2 14:1 
4 2:0.63737526 4:1 5:1.3494382e-05 6:0.010130358 8:18 9:2 10:1 11:2 12:3 13:3 14:2 15:4 
4 2:0.59768119 4:1 5:1.3494382e-05 6:0.0050407513 8:13 9:2 10:2 11:1 12:3 13:2 14:3 15:2 
4 2:0.4321264 4:1 5:1.3494382e-05 8:17 9:1 10:2 11:2 12:5 13:3 15:2 
4 2:0.1677511 4:1 5:1.3494382e-05 8:19 9:3 10:2 11:2 12:3 13:5 15:1 
4 4:1 5:1.3494382e-05 6:0.00025864745 8:15 9:1 10:1 12:2 13:5 14:1 
4 2:0.0018867253 4:1 5:1.1325642e-05 8:11 9:2 11:1 12:2 13:4 
4 2:0.1886314 4:1 5:1.3494382e-05 8:11 9:1 10:1 11:2 12:2 13:2 15:1 
4 0:1 4:1 5:1.3494382e-05 6:0.0062506466 8:9 9:2 11:1 12:3 13:2 14:2 
4 1:1 2:0.32910963 4:1 5:1.3494382e-05 8:11 9:3 10:1 11:3 12:1 13:3 
4 0:1 1:1 2:0.43394672 4:1 5:1.3494382e-05 8:11 9:1 10:1 11:2 12:3 13:1 15:1 
4 2:0.58842848 3:1 4:1 5:1.3494382e-05 8:7 9:1 11:1 13:2 
4 2:0.50454093 4:1 5:1.3494382e-05 8:18 9:3 10:2 11:2 12:4 13:3 15:2 
4 0:1 1:1 2:0.20567252 4:1 5:1.3494382e-05 8:6 9:1 11:2 12:2 13:1 
4 2:0.65738411 4:1 5:1.3494382e-05 8:10 9:2 10:1 11:2 12:3 13:2 
4 0:1 1:1 2:0.4590974 4:1 5:1.3494382e-05 6:0.0013966962 8:8 9:2 10:1 11:3 12:1 13:1 14:1 
4 2:0.22527672 4:1 5:1.3494382e-05 8:13 9:2 11:2 12:1 13:4 15:2 
4 2:0.28315334 4:1 5:1.3494382e-05 6:0.012708211 8:14 9:2 10:1 11:3 12:3 13:2 14:1 15:3 
4 2:0.24775327 4:1 5:1.3494382e-05 6:0.0050694899 8:11 9:2 10:1 11:2 12:1 13:2 14:1 15:1 
4 2:0.79702238 4:1 5:1.3494382e-05 6:3.4486326e-05 8:10 10:1 11:1 12:2 13:2 14:1 15:2 
4 1:1 5:1.236985e-05 6:0.0019484774 8:10 9:1 11:1 12:3 13:3 14:1 
4 4:1 5:1.3494382e-05 8:8 9:1 12:3 13:3 15:1 
4 2:0.2696702 3:1 4:1 5:1.3494382e-05 6:0.029158189 8:9 9:1 10:2 11:1 12:2 13:1 14:1 15:1 
4 2:0.47718016 4:1 5:9.2773878e-06 6:0.0041728455 8:10 9:2 11:1 12:2 13:2 14:1 15:1 
4 2:0.44058518 4:1 5:1.3494382e-05 6:0.0050694899 8:18 9:2 11:1 12:3 13:2 14:1 15:4 
4 0:1 1:1 5:1.3494382e-05 8:7 9:1 10:1 11:2 12:2 13:1 
4 2:0.31375158 4:1 5:1.3494382e-05 8:18 9:1 10:1 11:1 12:4 13:5 15:2 
4 2:0.5740056 4:1 5:1.3494382e-05 6:0.0015691278 8:21 9:2 10:2 11:1 12:3 13:4 14:2 15:4 
4 4:1 5:1.3494382e-05 6:5.1729489e-05 8:9 9:1 10:1 11:1 13:2 14:1 15:1 
4 0:1 1:1 4:1 5:1.3494382e-05 6:0.00010345898 8:13 9:2 10:1 11:1 12:2 13:3 14:1 15:2 
4 2:0.14102703 3:1 4:1 5:1.0120787e-05 8:10 9:1 11:1 12:5 13:2 
4 1:1 2:0.50019051 4:1 5:1.2482304e-05 6:0.00055178122 8:23 9:2 10:2 11:3 12:4 13:5 14:1 15:2 
4 2:0.69953503 4:1 5:1.3494382e-05 6:0.01248405 8:11 11:2 12:3 13:2 14:1 15:1 
4 4:1 5:6.2506446e-06 8:14 9:2 10:1 12:2 13:6 15:1 
4 2:0.23601184 4:1 5:1.3494382e-05 8:15 9:3 10:1 11:2 12:4 13:5 15:1 
4 1:1 2:0.69645918 3:1 4:1 5:1.3494382e-05 6:0.017967376 8:18 9:2 11:2 12:4 13:4 14:1 15:3 
4 2:0.51636651 4:1 5:1.3494382e-05 6:8.6215815e-05 8:12 9:1 10:1 11:2 12:2 13:2 14:1 15:1 
4 1:1 2:0.43860795 4:1 5:1.1335281e-05 6:0.0053108942 8:15 9:1 11:2 12:2 13:5 14:1 15:1 
4 2:0.53974052 4:1 5:1.3494382e-05 8:13 9:1 10:1 11:3 12:5 13:2 15:1 
4 2:0.3835576 4:1 5:1.3494382e-05 8:19 9:1 10:1 11:1 12:6 13:7 15:1 
4 0:1 2:0.72626615 4:1 5:1.3494382e-05 6:0.0038969549 8:11 9:2 10:2 11:3 12:1 13:2 14:1 15:1 
4 2:0.57796569 4:1 5:1.1995006e-05 6:0.0053108942 8:13 11:2 12:4 13:3 14:1 15:1 
4 2:0.48148306 4:1 5:1.3494382e-05 6:0.0001379453 8:17 9:1 10:1 11:2 12:3 13:2 14:2 15:1 
4 2:0.8047161 4:1 5:1.3494382e-05 8:12 11:1 12:2 13:4 15:1 
4 0:1 4:1 5:1.3494382e-05 6:0.0075783702 8:18 9:2 11:1 12:3 13:4 14:2 15:3 
4 2:0.52790101 4:1 5:1.3494382e-05 8:6 9:1 10:2 11:1 12:1 13:1 15:1 
4 2:0.49447418 4:1 5:1.0795506e-05 8:20 9:1 10:1 11:2 12:4 13:4 15:2 
4 0:1 2:0.64118828 4:1 5:1.3494382e-05 8:12 9:1 11:1 12:1 13:3 15:2 
4 2:0.46190691 4:1 5:1.3494382e-05 6:0.0061213229 8:18 9:3 11:3 12:4 13:5 14:1 15:3 
4 0:1 1:1 2:0.59327534 4:1 5:1.3494382e-05 8:13 9:2 10:1 11:3 12:3 13:3 15:1 
4 0:1 1:1 2:0.49534669 4:1 5:1.3494382e-05 8:17 9:1 11:3 12:5 13:3 15:1 
4 2:0.2881961 5:1.3494382e-05 6:3.4486326e-05 8:11 9:3 10:2 11:4 13:1 14:1 15:1 
4 4:1 5:1.3494382e-05 8:10 9:1 10:2 11:1 12:2 13:2 
4 2:0.88029984 4:1 5:1.3494382e-05 8:11 11:1 12:3 13:2 
4 2:0.21398025 4:1 5:1.2594757e-05 6:0.00053453806 8:18 9:1 10:1 11:1 12:4 13:5 14:1 15:1 
4 0:1 1:1 2:0.58443275 4:1 5:1.3494382e-05 6:0.012466807 8:17 9:2 10:1 11:2 12:3 13:4 14:1 15:1 
4 0:1 1:1 2:0.91306962 4:1 5:1.3494382e-05 6:0.00081042867 8:16 10:1 11:2 12:5 13:4 14:1 15:1 
4 1:1 2:0.42621191 4:1 5:1.3494382e-05 8:27 9:3 11:3 12:8 13:7 15:1 
4 2:0.14534787 4:1 5:1.3494382e-05 6:0.0001379453 8:13 9:1 10:1 11:2 12:4 13:1 14:1 15:3 
4 1:1 2:0.30454913 4:1 5:1.3494382e-05 6:0.00039659275 8:13 9:1 10:1 11:3 12:2 13:2 14:1 15:1 
4 2:0.24407545 4:1 5:1.3494382e-05 6:0.0029313377 8:16 9:2 10:1 11:2 12:4 13:2 14:2 15:1 
4 1:1 4:1 5:1.3494382e-05 8:18 9:1 11:2 12:6 13:3 
4 2:0.39094236 4:1 5:6.7471911e-06 8:9 9:2 10:2 11:3 12:2 13:1 15:1 
4 2:0.54906483 4:1 5:1.3494382e-05 8:8 11:2 12:2 13:2 15:1 
4 2:0.52563229 4:1 5:1.3494382e-05 6:0.00018967479 8:10 9:1 11:2 12:2 13:3 14:1 15:1 
4 2:0.40823957 3:1 4:1 5:1.3494382e-05 6:0.0053798669 8:14 9:2 10:1 11:1 12:3 13:3 14:1 15:2 
4 2:0.41268536 4:1 5:1.3494382e-05 8:17 9:3 10:1 11:2 12:6 13:4 15:3 
4 4:1 5:8.4339889e-06 8:10 12:2 13:3 15:1 
4 1:1 2:0.10554275 4:1 5:1.3494382e-05 8:12 9:1 11:3 12:3 13:2 15:1 
4 2:0.43966054 4:1 5:1.1920038e-05 6:0.00017243163 8:13 9:1 11:1 12:2 13:5 14:1 15:1 
4 2:0.22694486 4:1 5:1.3494382e-05 8:10 9:1 11:2 12:2 13:2 15:1 
4 1:1 4:1 5:1.1718806e-05 6:0.02567507 8:13 9:1 10:1 11:2 12:3 13:2 14:1 
4 4:1 5:1.3494382e-05 8:7 9:1 10:1 11:1 12:1 13:2 15:2 
4 1:1 2:0.50247297 4:1 5:1.3108828e-05 6:0.0029140946 8:21 9:2 10:1 11:1 12:3 13:7 14:3 15:2 
4 0:1 2:0.50433424 4:1 5:1.1807584e-05 6:0.0072507501 8:15 9:2 10:2 11:2 12:4 13:4 14:2 15:1 
4 1:1 2:0.77960414 4:1 5:1.3494382e-05 6:0.0080525572 8:17 9:1 10:1 11:1 12:2 13:4 14:1 15:2 
4 1:1 2:0.33628497 4:1 5:1.3494382e-05 6:0.0037590096 8:17 9:1 11:3 12:4 13:3 14:1 15:1 
4 2:0.63238891 4:1 5:1.3494382e-05 8:13 9:2 10:1 11:3 12:2 13:3 
4 2:0.30336354 4:1 5:1.0120787e-05 6:0.0016467221 8:15 9:2 10:1 11:2 12:3 13:3 14:2 15:2 
4 0:1 2:0.76352184 4:1 5:1.3494382e-05 8:19 9:1 11:2 12:6 13:4 15:3 
4 1:1 2:0.61522107 4:1 5:1.3494382e-05 8:15 9:1 10:1 11:3 12:3 13:4 15:2 
4 2:0.74094932 4:1 5:1.3494382e-05 6:0.0090785254 8:14 9:1 10:2 11:1 12:3 13:4 14:2 15:1 
4 2:0.38690908 4:1 5:1.0897902e-05 8:11 9:2 10:1 11:3 12:3 13:3 
4 1:1 2:0.58852313 4:1 5:1.3494382e-05 8:10 10:2 11:2 13:2 15:2 
4 2:0.095608914 5:1.3494382e-05 8:5 9:1 10:2 11:2 13:1 
4 2:0.16974718 4:1 5:1.3494382e-05 6:0.0053798669 8:13 9:2 11:2 12:3 13:3 14:1 15:1 
4 0:1 1:1 2:0.055684605 4:1 5:1.3494382e-05 8:12 9:2 10:1 11:2 12:2 13:3 15:1 
4 4:1 5:1.023847e-05 6:8.6215815e-05 8:17 10:1 12:5 13:4 14:2 15:2 
4 1:1 4:1 5:1.3494382e-05 8:12 9:2 11:1 12:1 13:4 
4 2:0.84501681 3:1 4:1 5:1.0795506e-05 8:14 9:2 11:2 12:4 13:4 15:1 
4 2:0.12352264 5:1.3494382e-05 6:0.00022416112 8:5 9:2 11:3 13:1 14:1 
4 2:0.015601318 4:1 5:5.5338804e-06 8:9 9:1 11:1 12:2 13:3 15:1 
4 2:0.41633237 4:1 5:1.3494382e-05 8:13 9:1 10:1 11:2 12:3 13:3 15:2 
4 2:0.31307698 4:1 5:1.3494382e-05 6:0.0013966962 8:15 9:2 11:2 12:4 13:4 14:1 15:1 
4 1:1 2:0.38733591 4:1 5:1.3494382e-05 6:0.00036210642 8:9 9:1 11:3 12:2 13:1 14:1 15:2 
4 2:0.41219545 4:1 5:1.3494382e-05 6:0.0021295306 8:19 9:2 10:1 11:2 12:3 13:5 14:2 15:1 
4 2:0.766632 4:1 5:1.3494382e-05 6:0.00024140428 8:13 9:1 11:1 12:3 13:3 14:1 15:1 
4 2:0.60342659 8:8 9:1 10:2 11:3 12:1 15:1 
4 2:0.40351351 4:1 5:1.3494382e-05 6:4.3107908e-05 8:10 9:1 11:2 12:2 13:2 14:2 15:1 
4 2:0.13171767 4:1 5:1.3494382e-05 8:14 9:1 11:1 12:4 13:3 15:2 
4 2:0.65388276 4:1 5:1.3494382e-05 8:23 9:3 10:1 11:3 12:4 13:4 15:4 
4 0:1 1:1 2:0.41804706 5:1.3494382e-05 6:0.002327827 8:9 9:1 11:3 12:2 13:1 14:1 15:1 
4 2:0.18741289 4:1 5:1.3494382e-05 6:0.00039659275 8:19 9:2 10:2 11:2 12:3 13:3 14:1 15:4 
4 2:0.28875336 4:1 5:1.3494382e-05 6:0.021191847 8:10 11:1 12:2 13:3 14:1 
4 0:1 4:1 5:1.2819663e-05 8:16 9:1 12:4 13:5 15:2 
4 0:1 2:0.69798348 4:1 5:1.3494382e-05 6:0.01248405 8:12 9:1 11:2 12:2 13:3 14:1 15:3 
4 5:1.3494382e-05 6:0.0029830672 8:9 9:1 10:1 11:1 13:1 14:1 
4 2:0.39205612 4:1 5:1.3494382e-05 8:11 9:2 10:1 11:4 12:3 13:1 15:1 
4 2:0.3480495 4:1 5:1.3494382e-05 6:0.0023019623 8:18 9:1 10:1 11:2 12:4 13:3 14:2 15:2 
4 2:0.76352184 4:1 5:1.3494382e-05 8:14 11:1 12:5 13:4 15:2 
4 4:1 5:1.3494382e-05 6:0.0090526606 8:10 10:1 11:1 12:1 13:1 14:2 
4 0:1 1:1 2:0.51929086 5:1.3494382e-05 8:10 11:2 12:3 13:2 15:2 
4 1:1 2:0.69798348 4:1 5:1.3494382e-05 8:18 9:1 10:1 11:2 12:4 13:6 15:3 
4 2:0.53245883 4:1 5:1.3494382e-05 6:0.029158189 8:15 9:1 10:1 11:2 12:1 13:4 14:1 15:1 
4 4:1 5:1.3494382e-05 6:1.7243163e-05 8:6 9:1 11:1 12:1 13:1 14:1 15:1 
4 0:1 1:1 2:0.66671004 4:1 5:1.0495631e-05 6:0.01924337 8:14 9:1 11:2 12:5 13:3 14:1 15:1 
4 2:0.24337878 4:1 5:1.3494382e-05 8:12 9:1 11:2 12:2 13:2 15:1 
4 2:0.74401375 4:1 5:1.3494382e-05 6:0.020502121 8:16 9:1 11:2 12:4 13:4 14:2 15:1 
4 2:0.58736188 4:1 5:1.1995006e-05 6:0.01248405 8:17 9:1 10:2 11:2 12:3 13:3 14:1 15:3 
4 2:0.27559574 4:1 5:1.3494382e-05 8:8 9:1 10:1 11:2 12:1 13:1 15:1 
4 0:1 1:1 4:1 5:1.3494382e-05 8:13 9:2 10:1 11:3 12:4 13:2 15:3 
4 2:0.37040608 4:1 5:1.0495631e-05 6:0.011880539 8:14 9:1 10:2 11:2 12:3 13:3 14:1 15:2 
4 4:1 5:1.3494382e-05 8:6 9:1 11:1 12:2 13:1 15:1 
4 2:0.54116709 3:1 4:1 5:9.3873964e-06 8:17 9:3 10:1 11:2 12:4 13:3 15:1 
4 2:0.67078327 5:1.3494382e-05 8:7 9:1 11:2 12:2 13:1 15:1 
4 2:0.3282945 4:1 5:1.3494382e-05 6:1.7243163e-05 8:8 10:2 11:1 12:1 13:2 14:1 15:1 
4 0:1 1:1 4:1 5:1.3494382e-05 8:10 9:2 11:1 12:3 13:2 
4 2:0.19233169 4:1 5:1.3494382e-05 6:0.011846053 8:16 9:2 10:2 11:2 12:2 13:3 14:1 15:3 
4 4:1 5:1.3494382e-05 8:11 9:1 11:1 12:2 13:4 15:1 
4 2:0.58855131 4:1 5:1.3494382e-05 8:18 9:1 11:2 12:5 13:4 15:3 
4 0:1 1:1 2:0.21491379 4:1 5:1.3494382e-05 6:0.0027991401 8:16 9:1 11:2 12:3 13:3 14:3 15:1 
4 0:1 1:1 2:0.39573614 4:1 5:8.9962548e-06 6:0.0043107908 8:13 9:1 11:3 12:4 13:2 14:1 15:1 
4 2:0.3557211 4:1 5:1.1245319e-05 8:14 9:1 11:2 12:5 13:3 15:1 
4 2:0.65413589 5:8.9962548e-06 6:0.0032934441 8:9 9:1 10:1 11:3 12:1 13:1 14:1 15:1 
4 4:1 5:1.3494382e-05 8:10 9:1 12:1 13:3 15:2 
4 2:0.43887139 4:1 5:1.3494382e-05 6:0.0022502328 8:14 9:1 10:1 11:2 12:2 13:2 14:2 15:3 
4 2:0.25154772 4:1 5:1.3494382e-05 8:9 9:1 10:1 11:2 12:2 13:2 15:1 
4 2:0.63254245 4:1 5:1.3494382e-05 6:0.022278167 8:17 9:2 10:2 11:2 12:2 13:6 14:1 15:2 
4 4:1 5:1.3494382e-05 7:1 8:10 9:2 10:1 12:1 13:3 14:1 15:1 
4 4:1 5:1.3494382e-05 6:0.009621685 8:15 12:3 13:4 14:2 15:1 
4 2:0.12403898 4:1 5:1.3494382e-05 8:16 9:2 10:1 11:2 12:3 13:3 15:1 
4 2:0.59768119 4:1 5:1.3494382e-05 6:0.00010345898 8:20 9:2 10:2 11:1 12:4 13:5 14:1 15:3 
4 4:1 5:1.3494382e-05 6:0.0014656689 8:12 9:1 11:1 12:3 13:3 14:1 15:1 
4 2:0.87115889 3:1 4:1 5:1.3494382e-05 6:0.00057764596 8:13 9:2 11:1 12:4 13:3 14:2 
4 0:1 1:1 2:0.49534669 5:8.9962548e-06 6:0.01248405 8:8 9:1 11:3 12:3 13:1 14:1 
4 2:0.65819764 4:1 5:1.3494382e-05 6:0.004284926 8:19 9:1 10:2 11:1 12:3 13:4 14:2 15:2 
4 0:1 1:1 2:0.46258396 4:1 5:1.3494382e-05 6:0.002327827 8:13 9:3 10:1 11:4 12:2 13:2 14:1 15:2 
4 2:0.62157818 4:1 5:1.3494382e-05 8:13 10:2 11:2 12:3 13:2 15:1 
4 2:0.38408288 4:1 5:1.3494382e-05 8:12 9:1 11:2 12:4 13:3 
4 2:0.29398087 4:1 5:1.3494382e-05 6:0.00017243163 8:8 11:1 12:3 13:2 14:1 15:1 
4 0:1 1:1 2:0.20358523 4:1 5:1.3494382e-05 6:0.0062592682 8:11 9:1 11:3 12:3 13:1 14:2 15:1 
4 2:0.42493761 4:1 5:1.0495631e-05 8:13 9:2 10:3 11:3 12:3 13:3 
4 2:0.58400955 4:1 5:1.3494382e-05 8:12 10:1 11:1 12:3 13:2 15:2 
4 1:1 2:0.49612456 4:1 5:1.3494382e-05 8:11 9:1 10:1 11:3 12:1 13:2 15:1 
4 2:0.40260567 4:1 5:1.3494382e-05 6:0.018070835 8:16 11:2 12:4 13:3 14:1 
4 2:0.11754407 4:1 5:1.3494382e-05 8:11 11:1 12:4 13:3 15:1 
4 2:0.10699012 4:1 5:1.3494382e-05 8:14 9:2 10:1 11:2 12:3 13:4 15:1 
4 0:1 2:0.38885253 4:1 5:1.3494382e-05 8:8 9:1 10:1 11:2 12:2 13:2 
4 2:0.36208806 4:1 5:1.3494382e-05 8:8 9:1 11:2 12:2 13:2 15:1 
4 2:0.084984959 4:1 5:1.3494382e-05 6:0.00053453806 8:12 9:2 10:1 11:2 12:2 13:3 14:1 15:2 
4 2:0.91306962 3:1 4:1 5:1.3494382e-05 6:0.0003276201 8:12 9:1 11:1 12:3 13:3 14:1 
4 2:0.42130642 4:1 5:1.3494382e-05 8:14 9:3 10:1 11:3 12:2 13:5 
4 2:0.88029984 4:1 5:1.3494382e-05 6:0.00024140428 8:17 9:2 11:1 12:5 13:5 14:1 15:2 
4 4:1 5:1.3494382e-05 6:0.00017243163 8:7 9:1 10:1 11:1 13:2 14:1 
4 2:0.82406893 4:1 5:1.3494382e-05 8:18 9:2 11:1 12:4 13:7 15:1 
4 1:1 2:0.39397954 4:1 5:9.3175497e-06 6:0.0084577715 8:19 9:1 10:2 11:3 12:5 13:3 14:2 15:2 
4 0:1 1:1 2:0.33335641 4:1 5:1.3494382e-05 8:8 9:2 11:3 12:3 13:2 
4 0:1 2:0.51689131 4:1 5:1.3494382e-05 8:15 9:3 10:1 11:3 12:3 13:4 15:1 
4 0:1 2:0.14363791 4:1 5:1.3494382e-05 6:0.0053108942 8:12 9:1 11:1 12:3 13:2 14:1 15:1 
4 1:1 4:1 5:1.3494382e-05 8:7 9:1 10:1 11:2 12:1 13:1 15:1 
4 2:0.65812074 4:1 5:1.1695131e-05 8:13 9:2 10:2 11:1 12:2 13:5 15:2 
4 2:0.29746699 4:1 5:1.3494382e-05 6:0.01215643 8:21 9:3 10:3 11:3 12:4 13:3 14:2 15:2 
4 2:0.33153841 4:1 5:1.3494382e-05 6:0.0098630893 8:23 9:2 11:2 12:5 13:6 14:2 15:1 
4 0:1 1:1 2:0.16113156 4:1 5:1.1377616e-05 8:14 9:1 10:1 11:2 12:4 13:3 15:2 
4 2:0.59627163 4:1 5:1.1995006e-05 8:11 10:1 11:1 12:1 13:3 15:1 
4 4:1 5:9.9958387e-06 8:8 12:1 13:3 
4 2:0.30141295 4:1 5:1.3494382e-05 6:0.018070835 8:15 9:2 10:1 11:3 12:2 13:3 14:1 
4 0:1 1:1 2:0.44328837 4:1 5:1.3494382e-05 6:0.00075869918 8:18 9:2 10:1 11:3 12:3 13:3 14:1 15:3 
4 0:1 1:1 2:0.33013864 4:1 5:1.3494382e-05 8:11 9:1 10:1 11:2 12:2 13:3 15:2 
4 0:1 1:1 2:0.41623786 4:1 5:1.3494382e-05 8:9 10:1 11:2 12:3 13:2 
4 2:0.069507308 4:1 5:1.3494382e-05 6:0.0018105321 8:11 9:2 10:2 11:2 12:2 13:2 14:1 15:1 
4 2:0.57221794 4:1 5:1.3494382e-05 6:0.00025864745 8:20 9:3 11:3 12:4 13:5 14:1 15:1 
4 2:0.43215513 4:1 5:1.3494382e-05 8:21 9:2 10:1 11:2 12:5 13:4 15:3 
4 2:0.12277412 4:1 5:1.3494382e-05 8:12 9:2 10:1 11:2 12:3 13:3 15:1 
4 2:0.25492688 4:1 5:1.3494382e-05 8:16 9:2 11:1 12:4 13:6 15:1 
4 1:1 2:0.57015117 4:1 5:1.3494382e-05 6:0.01684657 8:26 9:3 10:3 11:4 12:5 13:5 14:1 15:2 
4 1:1 2:0.66168929 4:1 5:1.3494382e-05 6:0.0038279822 8:14 9:1 10:1 11:3 12:2 13:3 14:1 15:2 
4 2:0.33873852 4:1 5:1.3085462e-05 6:0.017967376 8:15 9:1 10:2 11:2 12:3 13:3 14:1 15:1 
4 0:1 1:1 2:0.5594915 4:1 5:1.3494382e-05 8:17 9:2 10:1 11:3 12:3 13:3 15:4 
4 0:1 2:0.20742928 4:1 5:1.3494382e-05 8:19 9:3 11:2 12:4 13:6 15:2 
4 0:1 2:0.20742928 4:1 5:1.3494382e-05 8:19 9:3 11:2 12:4 13:6 15:2 
4 0:1 2:0.58575834 4:1 5:1.3494382e-05 6:0.0012673725 8:18 9:2 10:1 11:2 12:3 13:5 14:2 
4 0:1 1:1 2:0.71483307 4:1 5:1.3494382e-05 8:15 9:1 10:2 11:3 12:3 13:2 15:2 
4 0:1 4:1 5:1.3494382e-05 8:21 9:2 11:1 12:8 13:7 15:3 
4 2:0.3750466 4:1 5:1.3494382e-05 8:11 9:1 11:2 12:3 13:3 15:2 
4 2:0.53256254 4:1 5:1.3494382e-05 6:0.00041383591 8:14 9:1 10:2 11:2 12:2 13:3 14:1 15:1 
4 2:0.33941308 4:1 5:1.3494382e-05 6:3.4486326e-05 8:12 9:2 11:1 12:3 13:3 14:1 
4 2:0.46787221 4:1 5:1.3494382e-05 8:9 9:1 11:2 12:2 13:2 15:1 
4 0:1 4:1 5:1.3218987e-05 6:0.0042590613 8:25 9:4 10:1 11:1 12:4 13:7 14:1 15:2 
4 2:0.075519062 4:1 5:1.3494382e-05 6:0.021191847 8:8 9:1 11:2 12:1 13:2 14:1 
4 1:1 2:0.52404694 4:1 5:1.3494382e-05 8:20 10:1 11:2 12:6 13:4 15:3 
4 0:1 1:1 2:0.29726421 4:1 5:1.3327785e-05 6:0.00018967479 8:12 9:1 10:1 11:2 12:4 13:3 14:1 
4 2:0.28820083 4:1 5:1.3494382e-05 6:6.8972652e-05 8:6 9:2 11:3 13:1 14:1 15:1 
4 2:0.31446224 4:1 5:1.3494382e-05 6:0.01248405 8:11 9:1 11:1 12:1 13:3 14:1 15:1 
4 0:1 2:0.58322872 4:1 5:1.3494382e-05 8:13 9:1 10:1 11:2 12:3 13:2 15:2 
4 0:1 1:1 4:1 5:1.3494382e-05 8:13 9:1 10:1 11:1 12:2 13:4 15:1 
4 1:1 2:0.37447299 4:1 5:1.0795506e-05 8:23 9:4 11:4 12:6 13:5 15:5 
4 0:1 1:1 4:1 5:1.3494382e-05 6:0.0061213229 8:9 9:1 11:1 13:2 14:1 
4 2:0.73931835 4:1 5:1.3494382e-05 8:23 9:3 10:2 11:2 12:4 13:9 15:1 
4 2:0.43481325 4:1 5:1.3494382e-05 6:0.00081905025 8:16 9:1 11:2 12:4 13:4 14:2 
4 2:0.35407159 5:1.3494382e-05 8:7 9:1 11:2 12:2 13:1 15:1 
4 2:0.74855654 4:1 5:1.3494382e-05 6:0.010595924 7:1 8:10 9:1 10:1 11:1 12:2 13:2 14:2 
4 0:1 1:1 2:0.63393099 5:1.3494382e-05 6:0.0042590613 8:13 9:2 10:1 11:2 12:1 13:1 14:1 15:1 
4 2:0.42256662 4:1 5:1.3494382e-05 8:16 9:2 10:1 11:1 12:4 13:4 15:3 
4 2:0.77065147 4:1 5:1.3494382e-05 6:0.002164017 8:16 9:1 10:1 11:1 13:3 14:2 15:1 
4 2:0.29405076 4:1 5:1.3494382e-05 6:0.01924337 8:21 9:3 10:2 11:3 12:3 13:4 14:1 15:2 
4 2:0.0049124186 4:1 5:1.3494382e-05 8:9 9:1 11:1 12:2 13:3 
4 1:1 2:0.59395258 4:1 5:1.0495631e-05 8:16 9:1 10:1 11:2 12:5 13:3 15:4 
4 2:0.87475737 4:1 5:1.1695131e-05 8:14 9:1 11:1 12:4 13:5 15:3 
4 0:1 2:0.20771006 4:1 5:1.3494382e-05 8:13 9:3 10:2 11:2 12:1 13:3 15:2 
4 1:1 2:0.5740056 3:1 4:1 5:1.3494382e-05 6:0.012656482 8:18 9:2 10:1 11:2 12:3 13:5 14:1 15:1 
4 1:1 4:1 5:1.1245319e-05 6:3.4486326e-05 8:13 9:1 11:1 12:2 13:4 14:1 15:1 
4 2:0.38667627 4:1 5:1.3494382e-05 6:0.0013966962 8:11 9:3 11:3 12:3 13:2 14:1 15:1 
4 2:0.28867513 4:1 5:1.3494382e-05 6:0.00024140428 8:12 9:1 11:1 12:2 13:3 14:1 15:1 
4 2:0.5521254 4:1 5:1.236985e-05 6:0.0038969549 8:13 9:1 11:2 12:4 13:3 14:1 15:2 
4 2:0.64017251 4:1 5:1.1648997e-05 6:0.0032589578 8:20 9:1 10:1 11:2 12:6 13:3 14:1 15:3 
4 0:1 1:1 4:1 5:1.3494382e-05 6:5.1729489e-05 8:6 9:1 11:1 12:1 13:1 14:1 15:1 
4 2:0.10472986 4:1 5:8.4339889e-06 8:10 9:1 11:2 12:3 13:2 
4 1:1 2:0.54474552 4:1 5:1.2851793e-05 8:15 9:1 10:2 11:3 12:4 13:3 
4 2:0.74094932 4:1 5:1.3494382e-05 6:0.0030865262 8:11 9:1 11:1 13:3 14:2 15:1 
4 1:1 2:0.14384911 4:1 5:1.3494382e-05 6:0.00010345898 8:19 9:2 10:1 11:2 12:4 13:6 14:1 15:2 
4 2:0.65812074 4:1 5:1.3494382e-05 8:5 11:1 12:2 13:1 15:1 
4 2:0.17267728 4:1 5:1.3494382e-05 6:0.0050694899 8:14 9:1 10:1 11:1 12:2 13:3 14:1 15:1 
4 4:1 5:9.7994919e-06 6:0.013656585 8:11 9:1 12:3 13:4 14:2 
4 2:0.16506932 4:1 5:1.3494382e-05 8:5 9:1 11:2 12:1 13:1 15:1 
4 0:1 1:1 2:0.3822669 4:1 5:1.3494382e-05 6:0.0020346932 8:18 9:2 10:1 11:2 12:7 13:4 14:1 15:1 
4 2:0.23577656 4:1 5:1.3494382e-05 6:0.0053108942 8:15 9:1 10:1 11:1 12:4 13:4 14:1 15:1 
4 0:1 1:1 4:1 5:1.3494382e-05 6:0.0020174501 8:16 9:1 11:2 12:6 13:4 14:1 
4 0:1 1:1 2:0.83236395 4:1 5:1.3494382e-05 6:1.7243163e-05 8:17 9:1 11:2 12:5 13:4 14:1 15:1 
4 2:0.54834109 4:1 5:1.3494382e-05 6:0.0034658758 8:22 9:1 10:3 11:2 12:5 13:3 14:3 15:4 
4 0:1 2:0.16325579 4:1 5:1.3494382e-05 8:11 9:1 11:1 12:3 13:2 15:3 
4 2:0.67169332 4:1 5:1.3494382e-05 8:13 9:1 11:1 12:4 13:3 15:2 
4 2:0.74177422 4:1 5:1.3494382e-05 6:0.00071559127 8:21 10:1 11:1 12:6 13:4 14:2 15:4 
4 4:1 5:1.3494382e-05 6:0.0011725351 8:18 9:2 10:2 11:1 12:3 13:5 14:1 15:1 
4 0:1 1:1 2:0.88029984 4:1 5:1.3494382e-05 8:7 9:1 11:2 12:2 13:2 15:1 
4 1:1 2:0.19883297 4:1 5:1.3494382e-05 8:26 9:4 10:1 11:4 12:6 13:7 15:1 
4 1:1 2:0.57170721 4:1 5:1.3494382e-05 6:0.029158189 8:17 10:1 11:3 12:5 13:3 14:1 15:3 
4 2:0.74855654 3:1 4:1 5:1.3494382e-05 6:0.0007931855 8:18 9:1 10:1 11:1 12:4 13:3 14:2 15:3 
4 2:0.164254 4:1 5:1.3494382e-05 6:0.00010345898 8:13 9:2 10:1 11:2 12:2 13:3 14:1 
4 0:1 1:1 2:0.37734506 4:1 5:1.3494382e-05 8:14 9:2 11:2 12:4 13:3 15:2 
4 0:1 2:0.71732856 3:1 4:1 5:1.3494382e-05 6:0.029158189 8:8 9:1 10:1 11:1 12:1 13:2 14:1 
4 2:0.30950802 4:1 5:1.2144944e-05 6:0.006242025 8:10 9:2 10:1 11:1 12:2 13:2 14:1 15:2 
4 0:1 2:0.65057534 4:1 5:1.3494382e-05 6:0.0003276201 8:8 9:1 10:1 11:2 12:1 13:1 14:1 
4 2:0.24012009 4:1 5:1.3494382e-05 6:0.0016381005 8:12 9:1 10:1 11:1 12:3 13:2 14:1 15:1 
4 0:1 2:0.57359386 4:1 5:1.3494382e-05 6:0.010276925 8:12 9:1 10:1 11:2 12:2 13:2 14:1 15:1 
4 2:0.13204925 4:1 5:1.3494382e-05 8:8 9:1 11:2 12:2 13:1 15:1 
4 0:1 2:0.65812074 4:1 5:1.3494382e-05 8:16 9:3 10:2 11:2 12:4 13:4 
4 2:0.55973176 4:1 5:1.3494382e-05 6:0.0023019623 8:11 9:1 10:1 11:1 12:2 13:3 14:2 15:2 
4 2:0.74094932 7:1 8:4 9:1 10:1 11:1 14:1 15:1 
4 4:1 5:1.3494382e-05 6:0.00024140428 8:7 9:1 12:2 13:2 14:1 15:1 
4 4:1 5:1.3494382e-05 6:0.00011495442 8:15 9:3 11:2 12:3 13:3 14:3 15:1 
4 0:1 1:1 2:0.72071612 4:1 5:1.3494382e-05 8:15 9:3 10:1 11:3 12:3 13:4 15:1 
4 0:1 2:0.23868467 4:1 5:1.3494382e-05 6:0.0040693865 8:27 9:5 10:1 11:2 12:7 13:10 14:1 15:1 
4 2:0.53934918 4:1 5:1.3494382e-05 8:10 9:1 10:1 11:1 12:2 13:3 15:1 
4 0:1 1:1 2:0.17159929 4:1 5:1.1245319e-05 6:0.00012070214 8:11 9:1 10:1 11:1 12:1 13:3 14:1 15:1 
4 2:0.59771154 4:1 5:1.3494382e-05 6:6.8972652e-05 8:13 9:1 11:1 12:4 13:3 14:1 15:1 
4 4:1 5:1.3494382e-05 6:0.00029313377 8:12 9:1 10:1 11:1 12:4 13:3 14:1 15:1 
4 4:1 5:8.9962548e-06 8:7 11:1 12:2 13:2 
4 4:1 5:1.3494382e-05 8:10 9:1 11:1 12:1 13:2 15:2 
4 2:0.2908093 4:1 5:1.3494382e-05 8:14 9:1 11:1 12:4 13:4 15:1 
4 2:0.63303379 4:1 5:1.3494382e-05 6:0.0075525054 8:15 9:2 11:2 12:4 13:4 14:2 15:1 
4 0:1 2:0.32314624 4:1 5:1.3494382e-05 8:20 9:2 10:1 11:2 12:4 13:4 15:2 
4 0:1 1:1 4:1 5:1.3494382e-05 8:12 9:2 10:1 11:2 12:3 13:5 
4 0:1 1:1 2:0.83385872 4:1 5:1.3494382e-05 6:1.7243163e-05 8:12 9:1 10:1 11:2 12:2 13:3 14:1 
4 2:0.52299272 4:1 5:1.3494382e-05 6:0.0001379453 8:16 9:2 10:1 11:2 12:3 13:2 14:1 15:3 
4 2:0.76109242 4:1 5:1.3494382e-05 6:0.00091388764 8:17 9:1 10:1 11:2 12:2 13:4 14:2 15:1 
4 2:0.54693819 4:1 5:1.3494382e-05 8:15 9:1 11:1 12:4 13:5 15:1 
4 0:1 1:1 4:1 5:1.3494382e-05 8:10 9:1 11:2 12:3 13:2 15:2 
4 2:0.48041854 4:1 5:1.3494382e-05 6:0.012708211 8:9 9:2 10:1 11:3 12:1 13:1 14:2 15:1 
4 4:1 5:1.3494382e-05 6:0.0003276201 8:11 9:2 12:3 13:4 14:1 
4 2:0.27952396 4:1 5:1.3494382e-05 8:6 9:3 11:4 13:1 15:1 
4 0:1 1:1 2:0.55540523 4:1 5:1.3494382e-05 6:0.011846053 8:17 9:2 10:1 11:3 12:5 13:1 14:2 
4 0:1 1:1 2:0.45968893 4:1 5:1.3494382e-05 8:11 9:1 10:1 11:2 12:2 13:3 15:1 
4 2:0.55424906 4:1 5:9.4460676e-06 6:0.0006552402 8:12 9:1 10:1 11:2 12:2 13:2 14:2 15:1 
4 2:0.16996992 4:1 5:9.5585208e-06 8:9 9:1 10:1 11:1 12:3 13:3 
4 0:1 1:1 2:0.73208758 4:1 5:1.3494382e-05 8:15 9:2 11:2 12:2 13:4 15:4 
4 1:1 2:0.051481723 4:1 5:1.3494382e-05 6:0.00096561713 8:9 11:1 12:2 13:2 14:1 15:2 
4 0:1 2:0.5756059 4:1 5:1.3494382e-05 6:0.00017243163 8:20 9:3 10:1 11:3 12:3 13:4 14:1 15:1 
4 2:0.25399657 4:1 5:1.3494382e-05 8:14 9:1 11:2 12:5 13:3 15:1 
4 2:0.2941727 4:1 5:1.3494382e-05 8:12 9:1 11:1 12:3 13:4 
4 0:1 1:1 2:0.80783622 4:1 5:1.3494382e-05 8:13 11:3 12:4 13:2 15:2 
4 2:0.28052088 4:1 5:1.3494382e-05 8:9 9:1 11:1 12:2 13:3 15:1 
4 2:0.33896835 4:1 5:1.1245319e-05 6:0.00041383591 8:12 9:1 10:1 11:1 12:2 13:3 14:1 15:2 
4 2:0.45474649 4:1 5:1.3494382e-05 6:0.001957099 8:11 9:1 10:1 11:1 13:3 14:2 15:1 
4 2:0.19702865 4:1 5:1.3494382e-05 6:0.0050694899 8:16 9:3 10:1 11:3 12:3 13:4 14:1 15:2 
4 2:0.50934514 4:1 5:1.3494382e-05 8:14 9:1 10:1 11:2 12:2 13:3 15:2 
3.479880896329309 0:1 1:1 2:0.16220378 5:1.3494382e-05 6:0.006242025 8:11 9:1 10:2 11:2 12:1 13:2 14:1 15:2 
4 2:0.46862654 4:1 5:1.3494382e-05 6:0.0003276201 8:17 9:1 10:1 11:2 12:4 13:4 14:1 15:1 
4 2:0.41756669 4:1 5:1.0120787e-05 8:10 9:1 10:1 11:2 12:2 13:2 15:1 
4 0:1 2:0.17606817 4:1 5:1.3494382e-05 6:0.0061040797 8:15 9:2 11:2 12:3 13:3 14:3 15:1 
4 2:0.83900059 4:1 5:1.3494382e-05 6:0.011846053 8:8 10:1 11:1 12:2 13:1 14:1 15:1 
4 0:1 2:0.57775446 4:1 5:1.3494382e-05 6:1.7243163e-05 8:19 9:2 11:3 12:6 13:2 14:1 15:3 
4 2:0.74636098 4:1 5:1.3494382e-05 6:0.0032589578 8:18 9:1 11:2 12:5 13:6 14:1 15:1 
4 3:1 4:1 5:1.3494382e-05 6:0.0041038728 8:15 9:4 10:2 11:1 12:3 13:3 14:2 15:1 
4 2:0.2721656 4:1 5:1.2629358e-05 8:21 9:3 10:1 11:3 12:6 13:6 15:2 
4 2:0.45474649 4:1 5:1.3494382e-05 6:0.0029830672 8:6 9:1 11:1 12:1 13:1 14:1 15:1 
4 0:1 1:1 2:0.77960414 4:1 5:1.3494382e-05 8:11 9:1 10:1 11:2 12:2 13:2 15:1 
4 0:1 1:1 4:1 5:1.3494382e-05 8:18 9:2 10:1 11:2 12:5 13:6 
4 0:1 2:0.74094932 4:1 5:1.3494382e-05 6:0.018070835 8:11 9:1 10:2 11:2 12:3 13:2 14:1 15:1 
4 2:0.56608242 4:1 5:1.3494382e-05 8:22 9:1 11:1 12:5 13:6 15:1 
4 2:0.47635019 4:1 5:1.1807584e-05 8:14 9:2 11:2 12:4 13:4 15:2 
4 2:0.33403979 4:1 5:1.2650983e-05 8:29 9:3 11:2 12:6 13:8 15:1 
4 4:1 5:1.324903e-05 8:16 9:1 12:5 13:5 15:1 
4 2:0.30286062 3:1 4:1 5:1.3494382e-05 6:6.8972652e-05 8:16 9:3 10:1 11:1 12:3 13:5 14:1 15:2 
4 2:0.21700198 4:1 5:1.3494382e-05 6:0.011846053 8:10 9:1 10:2 11:2 12:1 13:2 14:1 
4 2:0.30730364 4:1 5:1.3494382e-05 6:0.0091561196 8:14 9:2 11:2 12:2 13:3 14:2 15:2 
4 1:1 2:0.72962012 4:1 5:1.3213249e-05 6:0.0061213229 8:24 9:2 11:2 12:7 13:6 14:1 15:2 
4 0:1 1:1 2:0.7221619 4:1 5:1.3173087e-05 8:24 9:3 10:1 11:2 12:5 13:7 15:1 
4 0:1 1:1 2:0.24018651 4:1 5:1.3494382e-05 8:11 9:2 10:1 11:4 12:4 13:1 15:1 
4 2:0.38739872 4:1 5:1.3494382e-05 8:11 11:1 12:3 13:3 15:3 
4 2:0.45036476 4:1 5:1.3494382e-05 8:20 9:2 10:2 11:2 12:6 13:5 15:1 
4 2:0.16874286 4:1 5:1.3494382e-05 8:9 9:2 11:2 12:1 13:3 15:1 
4 2:0.34009492 4:1 5:1.3494382e-05 8:15 9:2 10:1 11:2 12:3 13:4 
4 1:1 2:0.51780926 4:1 5:1.3494382e-05 6:0.00010345898 8:13 9:1 10:1 11:3 12:3 13:1 14:1 15:2 
4 0:1 2:0.76114604 4:1 5:1.3494382e-05 6:0.014699797 8:13 9:2 10:2 11:2 12:1 13:1 14:2 
4 2:0.74855654 4:1 5:1.2144944e-05 6:0.0060006208 8:17 9:1 10:2 11:1 12:5 13:4 14:2 15:1 
4 0:1 1:1 2:0.37292734 4:1 5:1.3494382e-05 8:12 9:1 11:3 12:4 13:2 15:2 
4 2:0.26100008 4:1 5:1.3494382e-05 8:15 9:2 10:1 11:2 12:2 13:3 15:3 
4 0:1 1:1 2:0.13862066 4:1 5:1.3494382e-05 8:11 9:2 11:2 12:4 13:3 15:2 
4 1:1 2:0.61789519 5:7.3605721e-06 6:0.0047849778 8:16 9:3 10:1 11:6 12:2 13:1 14:2 15:1 
4 2:0.41623786 4:1 5:1.3494382e-05 6:0.011880539 8:15 9:1 10:2 11:1 13:4 14:1 15:3 
4 0:1 1:1 2:0.47688493 4:1 5:1.3494382e-05 8:10 9:1 11:2 12:3 13:2 15:1 
4 2:0.36168341 4:1 5:1.1245319e-05 8:13 9:1 11:2 12:2 13:3 15:1 
4 2:0.14197799 4:1 5:1.2881001e-05 8:11 9:1 11:2 12:4 13:2 15:2 
4 2:0.50323524 4:1 5:1.0120787e-05 6:0.0059661344 8:15 9:2 10:1 11:2 12:3 13:2 14:2 15:2 
4 2:0.54312108 4:1 5:1.3494382e-05 6:3.4486326e-05 8:7 9:1 11:1 12:2 13:1 14:1 
4 1:1 2:0.57054737 4:1 5:1.3494382e-05 8:16 9:1 10:2 11:2 12:3 13:5 15:1 
4 2:0.55365518 4:1 5:1.3494382e-05 8:10 9:1 10:1 11:2 12:1 13:2 15:1 
4 2:0.55362328 8:9 9:1 10:1 11:2 12:2 15:1 
4 2:0.31042316 4:1 5:1.3494382e-05 6:0.00025864745 8:9 9:1 10:1 11:1 12:1 13:1 14:1 15:1 
4 4:1 5:1.3494382e-05 8:7 9:1 10:1 11:1 12:2 13:2 
4 2:0.22981793 4:1 5:1.3494382e-05 6:0.01248405 8:12 9:2 10:1 11:3 12:1 13:1 14:1 15:2 
4 0:1 1:1 2:0.11863368 4:1 5:1.2482304e-05 6:0.006242025 8:17 9:1 10:2 11:2 12:5 13:4 14:1 
4 0:1 1:1 2:0.25008037 4:1 5:8.9962548e-06 6:0.01924337 8:10 9:2 10:1 11:3 12:1 13:2 14:1 
4 4:1 5:1.2530498e-05 8:7 11:1 12:3 13:2 15:1 
4 2:0.60710476 5:1.3494382e-05 6:0.0028796082 8:13 9:1 10:1 11:3 12:3 13:2 14:1 15:1 
4 2:0.67760198 4:1 5:1.3494382e-05 8:9 9:3 11:1 12:3 13:3 15:1 
4 0:1 1:1 2:0.51222612 4:1 5:1.3494382e-05 6:0.00017243163 8:14 9:1 11:2 12:3 13:2 14:1 15:2 
4 2:0.12221032 4:1 5:1.2881001e-05 8:7 9:1 11:1 12:3 13:2 
4 2:0.12045412 4:1 5:1.3494382e-05 6:0.0030003104 8:5 9:1 10:1 11:2 13:1 14:1 
4 2:0.11634595 4:1 5:1.3494382e-05 8:7 9:1 11:2 12:2 13:2 15:1 
4 2:0.53983566 4:1 5:2.2490637e-06 8:4 11:2 13:1 
4 2:0.65812074 4:1 5:1.3494382e-05 8:9 9:1 10:1 11:1 12:1 13:1 15:1 
4 1:1 2:0.49367801 4:1 5:1.3494382e-05 8:19 9:1 10:1 11:2 12:3 13:5 15:3 
0.1855083974871899 2:0.32331361 3:1 4:1 5:1.3494382e-05 6:0.0072076422 8:7 9:2 10:1 11:2 12:1 13:1 14:2 
4 2:0.40926797 4:1 5:1.3494382e-05 8:12 9:2 10:1 11:2 12:4 13:4 15:1 
4 0:1 1:1 2:0.46635997 4:1 5:1.3494382e-05 6:0.0024485292 8:18 9:2 11:3 12:5 13:3 14:3 
4 4:1 5:1.1695131e-05 6:0.00077594234 8:17 9:2 12:4 13:5 14:1 15:2 
4 2:0.011694507 4:1 5:1.3494382e-05 6:0.0043711418 8:13 9:2 10:1 11:2 12:1 13:1 14:4 15:2 
4 2:0.53648191 4:1 5:7.4219103e-06 8:6 11:1 12:1 13:2 
4 2:0.35757253 4:1 5:1.3494382e-05 6:0.016268924 8:14 9:1 10:1 11:2 12:3 13:3 14:2 
4 3:1 4:1 5:1.236985e-05 6:0.0019312343 8:19 9:3 10:1 12:4 13:4 14:2 15:2 
4 2:0.16077641 4:1 5:1.3494382e-05 6:3.4486326e-05 8:8 9:1 11:2 12:2 13:2 14:1 
4 4:1 5:5.6864083e-06 8:19 9:1 12:5 13:7 
4 2:0.64118828 4:1 5:1.3494382e-05 6:0.029158189 8:14 9:1 10:1 11:1 12:2 13:4 14:1 15:2 
4 0:1 1:1 2:0.45503212 4:1 5:1.3494382e-05 6:0.0062678898 8:11 9:1 10:1 11:3 12:1 13:1 14:2 
4 2:0.479388 4:1 5:1.3494382e-05 6:1.7243163e-05 8:9 9:1 10:1 11:2 12:1 13:1 14:1 15:2 
4 2:0.74855654 4:1 5:1.3494382e-05 6:5.1729489e-05 8:17 9:1 10:2 11:1 12:3 13:4 14:1 15:1 
4 0:1 1:1 2:0.41359806 4:1 5:1.3494382e-05 8:16 9:1 11:2 12:4 13:4 15:2 
4 2:0.55119148 4:1 5:1.3494382e-05 8:9 9:2 10:1 11:1 12:2 13:3 15:1 
4 2:0.19554054 4:1 5:9.943229e-06 8:9 9:2 10:1 11:1 12:1 13:2 15:1 
4 2:0.66671004 4:1 5:1.3494382e-05 8:13 9:1 11:1 12:3 13:5 15:1 
4 0:1 1:1 2:0.74059049 4:1 5:1.3494382e-05 8:13 11:3 12:4 13:2 15:1 
4 2:0.36066289 4:1 5:1.3494382e-05 6:0.0014311825 8:10 9:1 11:2 12:2 13:1 14:2 15:1 
4 4:1 5:1.3494382e-05 6:0.00027589061 8:13 9:1 11:1 12:3 13:2 14:1 15:3 
4 2:0.74855654 4:1 5:1.3494382e-05 8:14 10:1 11:1 12:3 13:5 15:1 
4 2:0.54248034 4:1 5:1.3494382e-05 6:0.0059316481 8:19 9:3 10:1 11:2 12:3 13:4 14:2 15:2 
4 0:1 1:1 2:0.38739872 4:1 5:1.1245319e-05 8:16 9:1 11:2 12:5 13:4 
4 3:1 4:1 5:1.3494382e-05 8:6 9:1 12:2 13:3 
4 0:1 1:1 2:0.83385872 4:1 5:1.3494382e-05 6:0.0038969549 8:17 9:2 10:1 11:2 12:4 13:4 14:1 
1.886312149523162 2:0.46887162 5:1.3494382e-05 8:7 9:1 10:1 11:3 12:1 13:1 15:1 
4 0:1 1:1 4:1 5:1.3494382e-05 6:0.0090181743 8:15 9:1 11:1 12:4 13:3 14:2 15:1 
4 2:0.38632031 5:1.3494382e-05 8:7 11:2 12:1 13:1 
4 2:0.22737325 4:1 5:1.3494382e-05 6:0.0029830672 8:8 9:1 11:2 12:1 13:2 14:1 15:1 
4 2:0.74855654 4:1 5:1.3494382e-05 6:0.0010690761 8:19 9:1 10:1 11:1 12:5 13:6 14:2 
4 1:1 2:0.52235908 4:1 5:1.3494382e-05 6:0.00096561713 8:19 9:1 10:1 11:2 12:4 13:3 14:1 15:2 
4 1:1 2:0.27201571 4:1 5:1.3494382e-05 6:0.011880539 8:19 9:2 11:3 12:5 13:5 14:1 
4 2:0.47442436 4:1 5:1.3494382e-05 6:0.01924337 8:14 9:2 10:1 11:3 12:2 13:3 14:1 15:2 
4 2:0.27750562 4:1 5:1.3494382e-05 8:8 9:2 10:2 11:2 12:1 13:1 15:1 
4 2:0.30925493 4:1 5:1.2676541e-05 6:0.0039314412 8:15 9:1 11:1 12:5 13:3 14:1 15:3 
4 0:1 1:1 2:0.47688493 4:1 5:1.3494382e-05 8:8 11:2 12:2 13:2 15:1 
4 2:0.67292815 5:1.3494382e-05 6:0.00047131312 7:1 8:13 9:1 10:2 11:1 12:3 13:1 14:3 15:1 
4 2:0.52079958 4:1 5:1.3229787e-05 8:16 9:1 10:1 11:2 12:4 13:3 15:5 
4 2:0.30032727 4:1 5:1.3494382e-05 6:1.7243163e-05 8:12 9:1 11:1 12:1 13:2 14:1 15:3 
4 2:0.67292815 4:1 5:1.3494382e-05 8:11 10:1 11:1 12:2 13:4 
4 0:1 1:1 2:0.51222612 4:1 5:1.3494382e-05 8:9 9:1 11:2 12:1 13:1 15:2 
4 2:0.077015405 4:1 5:1.3494382e-05 8:14 9:2 11:1 12:3 13:4 15:2 
4 1:1 2:0.28767242 4:1 5:1.3494382e-05 8:22 9:2 10:1 11:3 12:5 13:4 15:2 
4 2:0.40880679 4:1 5:1.3494382e-05 6:0.0001379453 8:10 9:1 10:1 11:2 12:1 13:2 14:1 
4 4:1 5:1.294583e-05 6:0.0053798669 8:21 9:1 10:1 12:3 13:6 14:1 
4 2:0.58896144 4:1 5:1.3494382e-05 8:12 9:1 10:1 11:2 12:3 13:3 
4 0:1 1:1 2:0.40632024 4:1 5:1.2851793e-05 6:0.00041383591 8:12 9:1 11:2 12:3 13:3 14:1 
4 0:1 4:1 5:1.3494382e-05 8:14 9:2 11:1 12:4 13:5 
4 2:0.51534027 4:1 5:1.3494382e-05 6:0.0047849778 8:16 9:1 10:1 11:2 12:2 13:2 14:2 15:1 
4 2:0.16588845 3:1 4:1 5:1.3494382e-05 8:16 9:2 11:1 12:4 13:4 15:1 
4 2:0.67957384 4:1 5:1.3494382e-05 8:13 9:3 10:1 11:3 12:3 13:2 15:2 
4 0:1 1:1 2:0.251101 4:1 5:1.301244e-05 6:0.00022416112 8:19 9:2 10:1 11:3 12:7 13:4 14:1 15:1 
4 2:0.44336826 4:1 5:1.3494382e-05 6:6.8972652e-05 8:23 9:2 10:3 11:2 12:6 13:5 14:1 15:2 
4 2:0.28448149 4:1 5:1.3494382e-05 6:0.014467014 8:10 9:1 11:2 12:1 13:1 14:1 
4 2:0.36630699 4:1 5:1.3494382e-05 8:11 9:2 10:1 11:3 12:2 13:1 15:2 
4 1:1 2:0.041239305 4:1 5:1.3494382e-05 6:0.00050867331 8:20 9:3 10:2 11:3 12:4 13:4 14:2 
4 2:0.52983431 4:1 5:1.3108828e-05 6:0.00036210642 8:22 9:3 10:2 11:3 12:5 13:5 14:1 15:2 
4 2:0.70171244 4:1 5:1.3494382e-05 6:0.0038969549 8:9 11:1 12:2 13:3 14:1 15:1 
4 2:0.45968261 4:1 5:1.3494382e-05 8:15 9:3 10:1 11:2 12:1 13:5 15:1 
4 1:1 2:0.36659828 4:1 5:1.3494382e-05 8:11 9:1 10:1 11:2 12:2 13:2 15:2 
4 0:1 1:1 2:0.38197138 4:1 5:1.3494382e-05 8:9 9:1 11:2 12:3 13:1 15:1 
4 2:0.50749331 4:1 5:1.3494382e-05 6:0.00010345898 8:11 9:1 10:1 11:2 12:2 13:3 14:1 
4 2:0.48409243 4:1 5:1.3494382e-05 8:11 9:1 11:2 12:4 13:3 15:2 
4 2:0.30412844 4:1 5:1.3494382e-05 6:0.00027589061 8:12 9:2 11:2 12:4 13:3 14:1 15:1 
4 4:1 5:1.3494382e-05 8:9 9:1 10:1 11:1 12:3 13:3 
4 1:1 2:0.53171954 4:1 5:1.1920038e-05 8:19 9:2 10:1 11:3 12:4 13:5 15:2 
4 2:0.45248973 4:1 5:8.4339889e-06 6:6.8972652e-05 8:10 11:1 12:4 13:2 14:1 
4 0:1 1:1 2:0.17267728 4:1 5:1.3494382e-05 8:12 9:2 10:2 11:2 12:4 13:2 
4 0:1 1:1 2:0.33241893 4:1 5:1.2851793e-05 6:0.0068570312 8:17 9:3 11:4 12:4 13:3 14:3 15:2 
4 2:0.50151089 4:1 5:1.3494382e-05 6:0.0053108942 8:23 9:3 10:2 11:2 12:4 13:3 14:1 15:2 
4 2:0.33289087 4:1 5:1.3494382e-05 8:16 9:2 10:1 11:2 12:3 13:5 15:1 
4 2:0.41623786 4:1 5:1.3494382e-05 8:14 9:1 10:2 11:1 12:3 13:5 15:1 
4 2:0.15804263 4:1 5:1.3494382e-05 7:1 8:22 9:4 10:1 11:2 12:4 13:4 14:1 15:3 
4 0:1 2:0.74587815 4:1 5:1.1807584e-05 8:12 9:1 11:2 12:4 13:4 15:1 
4 2:0.76352184 4:1 5:1.3494382e-05 8:16 11:1 12:4 13:6 15:1 
4 2:0.37114626 4:1 5:1.3494382e-05 8:12 9:1 11:1 12:4 13:4 15:1 
4 2:0.12682431 4:1 5:1.3494382e-05 8:8 9:1 11:2 12:1 13:1 15:1 
4 4:1 5:9.4960468e-06 6:0.00024140428 8:9 9:1 13:3 14:1 
4 0:1 2:0.79714266 4:1 5:1.3249919e-05 6:0.00053453806 8:16 9:1 11:1 12:4 13:6 14:1 15:3 
4 0:1 1:1 2:0.47676327 4:1 5:1.3494382e-05 6:0.0067851847 8:16 9:3 11:3 12:2 13:3 14:2 15:1 
4 2:0.30640255 4:1 5:1.3494382e-05 8:10 9:3 10:1 11:3 12:1 13:1 15:1 
3.832947334440844 2:0.1289977 4:1 5:1.3494382e-05 8:11 9:1 10:1 11:2 12:1 13:1 15:2 
4 2:0.65650969 4:1 5:1.0120787e-05 8:6 11:2 12:1 13:2 15:1 
4 0:1 1:1 2:0.80024536 4:1 5:1.3494382e-05 6:1.7243163e-05 8:17 9:2 10:1 11:3 12:2 13:3 14:1 15:1 
4 2:0.12511831 4:1 5:1.3494382e-05 6:0.010276925 8:12 9:3 10:1 11:4 12:1 13:1 14:1 15:1 
4 2:0.37114626 4:1 5:1.3494382e-05 8:21 11:1 12:7 13:5 15:3 
4 2:0.51205709 4:1 5:1.3494382e-05 8:17 10:1 11:1 12:2 13:4 
4 2:0.25224229 8:6 9:1 11:2 12:1 15:1 
4 0:1 1:1 2:0.64787602 4:1 5:1.3494382e-05 8:13 10:1 11:2 12:2 13:2 15:1 
4 0:1 1:1 2:0.4635581 4:1 5:1.3494382e-05 8:10 9:1 11:2 12:2 13:2 15:2 
4 2:0.24548656 4:1 5:1.3494382e-05 6:0.0021726385 8:10 9:2 11:1 12:2 13:3 14:2 
4 1:1 2:0.52863346 4:1 5:1.3494382e-05 6:8.6215815e-05 8:9 9:1 10:1 11:3 13:1 14:1 15:1 
4 2:0.4142831 3:1 4:1 5:1.3494382e-05 6:0.0013966962 8:11 9:3 11:2 13:2 14:1 
4 2:0.26540421 8:4 9:1 11:3 
4 1:1 2:0.51921739 4:1 5:1.3494382e-05 8:12 9:1 11:3 12:3 13:3 
4 0:1 2:0.74094932 4:1 5:1.3494382e-05 8:10 9:1 10:1 11:2 12:2 13:3 15:1 
4 0:1 1:1 2:0.83900059 4:1 5:1.3494382e-05 8:16 11:2 12:3 13:4 15:2 
4 2:0.5621194 4:1 5:1.3494382e-05 8:8 9:1 10:1 11:2 12:2 13:1 15:1 
4 0:1 2:0.83385872 4:1 5:1.3494382e-05 8:7 9:1 10:2 11:2 12:1 13:2 
4 2:0.56738982 4:1 5:1.3494382e-05 6:0.0028882298 8:22 9:1 10:1 11:1 12:7 13:4 14:2 15:3 
4 2:0.53230837 4:1 5:1.3494382e-05 6:0.0040693865 8:8 9:1 10:1 11:2 12:1 13:2 14:1 
4 4:1 5:1.3494382e-05 6:0.0026726903 8:15 9:2 10:1 11:1 12:3 13:4 14:1 15:2 
4 4:1 5:1.3494382e-05 8:14 9:1 12:3 13:4 
4 3:1 4:1 5:1.3494382e-05 6:0.01924337 8:8 9:1 12:2 13:3 14:1 15:1 
4 0:1 1:1 4:1 5:1.3494382e-05 8:9 9:1 11:1 12:4 13:2 15:1 
4 0:1 1:1 6:0.00039659275 8:8 11:2 12:3 14:1 15:2 
4 2:0.47452138 4:1 5:1.3494382e-05 6:0.00041383591 8:18 9:3 10:2 11:3 12:4 13:4 14:1 15:2 
4 1:1 2:0.42260592 4:1 5:1.3494382e-05 6:6.8972652e-05 8:16 10:1 11:2 12:5 13:3 14:1 15:2 
4 2:0.15807922 4:1 5:1.3494382e-05 6:0.00084491499 8:13 9:3 11:2 12:2 13:4 14:1 
4 1:1 2:0.59988788 4:1 5:1.3494382e-05 6:0.0026726903 8:11 9:1 10:1 11:3 12:2 13:1 14:1 15:2 
4 1:1 2:0.007408627 4:1 5:1.3494382e-05 6:0.00039659275 8:20 9:1 11:2 12:6 13:4 14:1 15:3 
4 0:1 1:1 2:0.3588404 4:1 5:1.3494382e-05 6:0.00043107908 8:9 9:1 11:3 12:3 13:2 14:1 
4 2:0.46436003 4:1 5:1.1470225e-05 6:1.7243163e-05 8:19 9:2 11:3 12:7 13:4 14:1 15:2 
4 2:0.11754407 4:1 5:1.3494382e-05 8:9 11:1 12:3 13:2 15:1 
4 0:1 1:1 2:0.26631194 4:1 5:1.3494382e-05 6:0.00010345898 8:13 9:1 10:1 11:2 12:2 13:3 14:1 15:1 
4 2:0.29949249 4:1 5:1.3494382e-05 6:0.00012070214 8:8 9:1 10:1 11:1 12:2 13:2 14:1 15:1 
4 2:0.073754159 4:1 5:1.3494382e-05 8:7 9:1 11:2 12:2 13:2 15:1 
4 0:1 1:1 2:0.59827501 4:1 5:1.3494382e-05 8:13 9:2 10:1 11:3 12:4 13:4 
4 2:0.19442627 4:1 5:1.3494382e-05 6:8.6215815e-05 8:8 9:1 10:1 11:2 12:1 13:1 14:1 15:1 
4 0:1 1:1 2:0.64787602 4:1 5:1.3494382e-05 8:10 10:2 11:1 12:1 13:2 15:1 
4 4:1 5:1.3494382e-05 8:6 9:1 11:1 12:2 13:3 
1.407644111410063 2:0.32250324 5:1.0795506e-05 8:8 9:1 11:3 12:2 13:1 15:1 
4 2:0.48138124 4:1 5:1.3494382e-05 8:13 9:1 11:1 12:2 13:4 15:3 
4 2:0.080570994 4:1 5:1.3494382e-05 6:0.00086215815 8:6 9:1 11:2 12:1 13:1 14:2 
4 0:1 1:1 2:0.24726833 4:1 5:1.3494382e-05 6:0.00018967479 8:17 9:2 11:2 12:3 13:2 14:3 15:2 
4 2:0.29421424 4:1 5:1.3494382e-05 8:12 9:1 11:2 12:2 13:3 15:1 
4 0:1 2:0.504046 6:0.00027589061 8:7 9:2 11:3 12:2 14:1 15:1 
4 0:1 2:0.68901981 4:1 5:1.3494382e-05 6:0.01924337 8:12 9:2 11:2 12:3 13:2 14:1 15:2 
1.055333992197642 0:1 2:0.29426157 4:1 5:1.3494382e-05 6:0.018070835 8:21 9:3 10:2 11:3 12:4 13:4 14:1 15:3 
4 2:0.34565535 4:1 5:1.0120787e-05 8:7 9:1 10:1 11:2 12:2 13:2 
4 2:0.38371194 4:1 5:1.0154863e-05 8:21 9:2 10:3 11:2 12:5 13:6 15:2 
4 1:1 4:1 5:1.3494382e-05 8:11 11:1 12:5 13:4 15:1 
4 2:0.25189636 4:1 5:1.1245319e-05 8:10 9:1 10:1 11:1 12:1 13:3 
4 0:1 1:1 4:1 5:1.1848726e-05 6:0.019226127 8:10 11:1 12:3 13:2 14:1 
4 0:1 1:1 2:0.37760818 4:1 5:1.3494382e-05 8:8 9:1 11:2 12:2 13:2 15:1 
4 2:0.27514831 4:1 5:1.3494382e-05 8:16 9:2 10:2 11:2 12:3 13:4 15:1 
4 1:1 2:0.74448987 4:1 5:1.3494382e-05 8:25 9:2 10:2 11:1 12:5 13:8 15:3 
4 1:1 2:0.49443343 4:1 5:1.1245319e-05 6:0.011147705 8:13 9:1 10:1 11:2 12:2 13:3 14:2 15:1 
4 2:0.77065147 4:1 5:1.1245319e-05 6:0.0022933407 8:7 9:1 11:1 13:4 14:1 
4 1:1 2:0.46437002 4:1 5:1.3494382e-05 8:9 9:1 10:1 11:2 12:2 13:2 15:1 
4 1:1 2:0.36650424 4:1 5:1.3494382e-05 6:0.0061989171 8:9 9:1 10:2 11:3 13:1 14:2 
4 0:1 1:1 2:0.83236395 4:1 5:1.3494382e-05 6:0.00031899852 8:14 11:3 12:4 13:2 14:2 
4 2:0.36442209 4:1 5:1.3494382e-05 6:0.0032589578 8:8 11:2 12:2 13:1 14:1 
4 5:1.3494382e-05 6:0.00050867331 8:5 9:1 12:1 13:2 14:2 
4 2:0.34996047 4:1 5:1.3494382e-05 8:10 9:4 11:5 12:2 13:2 
4 2:0.67000298 4:1 5:1.3494382e-05 6:5.1729489e-05 8:12 9:1 11:1 12:2 13:3 14:1 15:1 
4 0:1 2:0.6029135 4:1 5:1.3494382e-05 8:9 9:1 11:2 12:1 13:3 
4 2:0.62028396 4:1 5:1.1245319e-05 6:0.0015605063 8:17 9:2 10:1 11:2 12:3 13:3 14:2 15:1 
4 1:1 2:0.58410973 4:1 5:1.3494382e-05 6:0.0021209091 8:18 9:2 10:1 11:4 12:5 13:4 14:1 15:1 
4 2:0.42543499 4:1 5:1.3494382e-05 8:8 9:1 10:1 11:2 12:2 13:2 15:1 
4 2:0.45484019 3:1 4:1 5:1.3494382e-05 8:5 9:1 11:1 12:1 13:2 
4 2:0.24285507 4:1 5:1.3494382e-05 6:0.010910611 8:13 9:1 11:1 12:3 13:2 14:4 15:2 
4 2:0.41864966 4:1 5:1.3494382e-05 8:11 9:1 10:1 11:2 12:2 13:2 15:1 
4 2:0.55980721 4:1 5:1.0120787e-05 6:0.00012070214 8:13 9:1 10:1 11:1 12:3 13:3 14:1 
4 1:1 2:0.5245848 4:1 5:1.3494382e-05 8:13 9:1 11:3 12:3 13:4 15:1 
4 4:1 5:1.3494382e-05 6:0.022278167 8:9 9:1 10:1 11:1 12:1 13:2 14:1 15:1 
4 1:1 2:0.4635581 4:1 5:1.3494382e-05 8:16 10:1 11:2 12:4 13:4 15:2 
4 2:0.55087793 4:1 5:1.1245319e-05 6:6.0351071e-05 8:23 9:1 10:2 11:2 12:4 13:3 14:2 15:1 
4 2:0.51052287 4:1 5:1.1079946e-05 6:0.014467014 8:16 9:1 11:2 12:4 13:4 14:1 15:2 
4 2:0.71661635 4:1 5:1.3494382e-05 8:10 9:1 10:1 11:3 12:1 13:2 
4 2:0.51926228 4:1 5:1.2530498e-05 7:1 8:8 9:1 11:1 12:3 13:2 14:1 
4 1:1 4:1 5:1.3494382e-05 6:0.00027589061 8:15 9:2 11:2 12:4 13:5 14:1 15:1 
4 2:0.18328152 4:1 5:1.3494382e-05 6:6.8972652e-05 8:6 9:1 11:1 12:2 13:2 14:1 
4 2:0.31776424 4:1 5:1.1995006e-05 6:0.0028796082 8:17 9:1 10:1 11:1 12:3 13:6 14:1 
4 0:1 4:1 5:1.3494382e-05 6:0.01248405 8:17 9:2 11:1 12:4 13:5 14:1 15:4 
4 1:1 4:1 5:1.2700595e-05 8:18 9:3 10:1 11:2 12:6 13:5 15:1 
4 2:0.87115889 4:1 5:1.3494382e-05 6:0.0013966962 8:11 10:1 11:1 12:2 13:3 14:1 15:1 
4 4:1 5:6.3455726e-06 6:1.7243163e-05 8:11 9:1 12:4 13:3 14:1 
4 0:1 2:0.26885295 4:1 5:1.3494382e-05 6:6.8972652e-05 8:6 9:1 11:1 12:2 13:1 14:1 15:1 
4 2:0.44157022 4:1 5:1.3494382e-05 8:7 9:1 11:2 12:3 13:1 
4 2:0.31671532 4:1 5:1.3494382e-05 8:10 9:2 11:3 12:2 13:2 15:1 
4 4:1 5:1.3494382e-05 6:0.0053108942 8:7 9:1 11:1 12:1 13:1 14:1 15:1 
4 2:0.32701401 4:1 5:1.3494382e-05 6:0.0003276201 8:12 9:2 10:1 11:3 12:1 13:1 14:1 15:2 
4 2:0.093956804 4:1 5:1.3494382e-05 8:9 9:1 11:2 12:3 13:1 15:1 
4 4:1 5:1.0120787e-05 6:0.021191847 8:6 11:1 12:1 13:2 14:1 
4 1:1 2:0.39637583 4:1 5:1.1245319e-05 8:12 9:1 11:3 12:4 13:3 15:1 
4 0:1 2:0.65812074 4:1 5:1.3494382e-05 6:0.013475532 8:9 9:1 11:2 12:3 13:2 14:2 
4 4:1 5:1.3494382e-05 8:8 10:2 12:1 13:2 15:1 
4 1:1 2:0.83385872 4:1 5:1.3494382e-05 8:16 10:1 11:2 12:5 13:4 15:1 
4 2:0.2033546 4:1 5:1.3494382e-05 8:11 9:1 11:2 12:2 13:1 15:1 
4 2:0.11907971 4:1 5:1.3494382e-05 8:5 9:3 11:4 13:1 
4 2:0.29815824 4:1 5:1.3494382e-05 6:0.0013966962 8:7 10:1 11:1 12:1 13:1 14:1 15:1 
4 4:1 5:1.3494382e-05 8:4 9:1 11:1 13:2 
4 0:1 2:0.86131993 4:1 5:1.3494382e-05 8:11 9:1 10:2 11:2 12:2 13:2 15:3 
4 2:0.59766823 4:1 5:1.3494382e-05 6:0.0013966962 8:19 9:2 11:2 12:5 13:6 14:1 15:2 
4 2:0.35203384 4:1 5:9.2007152e-06 8:8 9:1 11:2 12:2 13:2 
4 2:0.45575193 4:1 5:1.2144944e-05 8:15 9:1 10:2 11:2 12:3 13:2 15:1 
4 2:0.56042382 4:1 5:1.3494382e-05 6:0.013768666 8:21 9:2 11:2 12:7 13:4 14:2 15:2 
4 2:0.66671004 4:1 5:1.2594757e-05 8:16 11:1 12:4 13:5 15:2 
4 4:1 5:1.3494382e-05 8:5 9:1 11:1 12:1 13:2 
4 0:1 1:1 2:0.46561 8:3 9:1 11:2 12:1 
4 2:0.41195963 6:0.0042590613 8:10 9:1 11:2 12:3 14:1 
4 4:1 5:1.3494382e-05 8:10 9:1 12:2 13:3 15:1 
4 2:0.46061769 4:1 5:1.0120787e-05 6:0.00024140428 8:9 9:1 11:2 12:1 13:2 14:1 15:1 
4 0:1 5:1.103591e-05 6:0.00010345898 8:19 9:1 12:3 13:5 14:1 15:2 
4 0:1 1:1 4:1 5:1.3494382e-05 6:0.017967376 8:9 11:1 12:2 13:3 14:1 15:1 
4 1:1 2:0.20825359 4:1 5:1.3494382e-05 8:9 9:1 10:1 11:3 12:1 13:1 15:2 
4 2:0.82406893 4:1 5:1.3494382e-05 6:4.3107908e-05 8:13 10:1 11:1 12:2 13:4 14:2 
4 2:0.2311057 6:0.0006552402 8:5 9:1 11:1 14:1 15:1 
4 1:1 2:0.25781544 4:1 5:1.3494382e-05 8:12 9:1 11:3 12:2 13:2 15:2 
4 2:0.766632 3:1 4:1 5:1.0495631e-05 8:11 9:1 11:1 12:3 13:3 15:1 
4 1:1 2:0.21492522 4:1 5:1.3494382e-05 6:0.00058626754 8:12 9:2 10:1 11:3 12:2 13:1 14:1 15:1 
4 1:1 2:0.52272245 4:1 5:1.2530498e-05 6:0.0046470325 8:11 10:1 11:2 12:3 13:2 14:2 
4 0:1 1:1 2:0.53200743 5:1.3494382e-05 8:8 9:1 11:3 12:2 13:1 15:1 
4 2:0.58467765 8:9 9:1 11:3 12:2 15:3 
4 2:0.37968052 4:1 5:1.3494382e-05 6:0.0037590096 8:15 9:1 11:1 12:5 13:5 14:1 15:2 
4 0:1 1:1 2:0.1476402 5:1.3494382e-05 8:6 9:1 11:2 12:2 13:1 
4 2:0.37991133 4:1 5:1.3494382e-05 8:16 9:1 10:1 11:1 12:3 13:4 15:3 
4 2:0.40528194 8:8 9:5 11:7 
4 2:0.40510728 4:1 5:1.3494382e-05 8:9 9:1 11:2 12:2 13:1 15:1 
4 4:1 5:1.3494382e-05 8:4 9:2 11:1 12:1 13:1 
4 2:0.23641527 4:1 5:1.3494382e-05 6:0.00091388764 8:9 9:2 10:1 11:2 12:1 13:2 14:1 
4 0:1 1:1 2:0.46960225 4:1 5:1.3494382e-05 6:0.02567507 8:15 9:1 11:3 12:4 13:4 14:1 15:1 
4 0:1 1:1 2:0.51222612 3:1 4:1 5:1.3494382e-05 8:16 9:2 11:1 12:3 13:3 15:1 
4 4:1 5:1.9054568e-06 6:0.0031267602 8:10 9:1 10:1 12:1 13:3 14:3 15:1 
4 1:1 2:0.14365251 4:1 5:2.6988765e-06 6:0.0042590613 8:11 9:1 10:1 11:3 12:3 13:1 14:1 15:1 
4 2:0.33259872 4:1 5:1.3494382e-05 6:0.011846053 8:17 9:2 10:1 11:1 12:4 13:5 14:1 15:2 
4 2:0.83900059 4:1 5:1.3494382e-05 8:11 11:1 12:2 13:3 15:1 
4 4:1 5:1.3494382e-05 6:0.00081905025 8:9 9:1 11:1 12:1 13:2 14:2 15:1 
4 2:0.22741131 4:1 5:1.3494382e-05 6:5.1729489e-05 8:12 9:2 11:2 12:3 13:3 14:1 15:2 
4 1:1 2:0.67601201 4:1 5:1.3494382e-05 8:5 9:1 11:2 12:1 13:1 
4 0:1 1:1 4:1 5:1.3494382e-05 6:0.0017243163 8:10 11:1 12:3 13:3 14:1 
4 2:0.232805 5:1.3494382e-05 8:10 9:1 10:1 11:2 12:2 13:1 15:2 
4 0:1 1:1 2:0.70163158 4:1 5:7.59059e-06 8:8 9:1 11:3 12:1 13:2 15:1 
4 2:0.77065147 4:1 5:1.3494382e-05 6:0.0073197227 8:15 9:2 10:1 11:1 12:3 13:5 14:2 
4 2:0.21785215 4:1 5:1.3494382e-05 8:11 9:3 10:3 11:2 13:2 15:3 
4 2:0.74855654 4:1 5:1.1815358e-05 6:0.0083112046 8:24 9:1 10:2 11:1 12:5 13:7 14:1 15:1 
4 2:0.24221375 4:1 5:1.3494382e-05 8:13 9:1 10:1 11:2 12:2 13:2 15:2 
4 2:0.67169332 4:1 5:1.3494382e-05 8:18 9:1 10:1 11:1 12:4 13:4 15:1 
4 0:1 4:1 5:1.3494382e-05 6:0.00058626754 8:10 9:1 10:1 11:1 12:3 13:2 14:1 15:1 
4 2:0.48345809 4:1 5:1.3494382e-05 6:0.00025864745 8:13 9:1 10:1 11:2 12:3 13:3 14:1 15:1 
4 4:1 5:1.3494382e-05 6:5.1729489e-05 8:7 9:1 10:1 11:1 12:2 13:1 14:1 15:1 
4 1:1 2:0.14907912 4:1 5:1.3494382e-05 6:0.00041383591 8:7 11:2 12:1 13:1 14:1 15:1 
4 0:1 2:0.74094932 4:1 5:1.3494382e-05 8:9 9:2 11:1 12:2 13:4 
4 2:0.77065147 4:1 5:1.3494382e-05 8:10 9:1 11:1 12:2 13:3 
4 2:0.41403048 4:1 5:1.3494382e-05 8:7 9:2 11:3 12:2 13:2 
4 2:0.18710074 4:1 5:8.8232499e-06 8:7 9:1 11:2 12:2 13:2 
4 2:0.56313103 4:1 5:1.3494382e-05 8:5 11:2 12:1 13:1 
4 0:1 1:1 2:0.45098102 8:5 9:1 11:3 12:1 15:1 
4 1:1 2:0.44009741 4:1 5:1.3494382e-05 6:0.0099837914 8:12 11:3 12:3 13:1 14:2 15:2 
4 2:0.37029061 4:1 5:1.3494382e-05 6:0.00012070214 8:11 9:3 11:4 12:1 13:2 14:1 15:2 
4 2:0.81442819 4:1 5:1.3494382e-05 8:10 9:2 10:3 11:2 12:2 13:2 
4 1:1 4:1 5:1.3494382e-05 6:0.016967272 8:23 9:1 11:1 12:6 13:8 14:1 15:1 
4 2:0.31042316 4:1 5:1.3494382e-05 8:7 11:1 12:2 13:2 
4 2:0.50138856 4:1 5:1.3494382e-05 8:17 9:2 11:3 12:5 13:3 15:1 
4 2:0.46904521 4:1 5:1.3494382e-05 8:11 9:1 11:1 12:2 13:4 15:1 
4 2:0.55718021 4:1 5:1.1807584e-05 7:1 8:18 9:3 10:1 11:1 12:3 13:4 14:1 15:4 
4 0:1 1:1 2:0.72530447 4:1 5:1.3494382e-05 8:11 9:1 10:1 11:2 12:3 13:3 15:1 
4 2:0.37426482 4:1 5:7.7110756e-06 6:0.0013535883 8:12 9:1 10:2 11:1 12:1 13:2 14:2 15:3 
4 2:0.42260592 4:1 5:1.2144944e-05 6:0.00024140428 8:20 9:1 10:1 11:1 12:4 13:5 14:1 15:3 
4 3:1 4:1 5:1.3494382e-05 8:5 9:1 12:2 13:2 15:1 
4 2:0.45374446 4:1 5:1.1245319e-05 8:13 9:2 10:1 11:3 12:3 13:3 15:3 
4 2:0.36345176 4:1 5:8.67496e-06 6:0.00087077974 8:10 9:2 11:1 13:2 14:2 
4 2:0.33197929 4:1 5:1.0495631e-05 8:9 9:1 11:2 12:3 13:3 15:1 
4 1:1 2:0.44151467 4:1 5:1.2881001e-05 8:12 9:1 11:3 12:3 13:2 
4 1:1 2:0.45177266 4:1 5:1.301244e-05 8:17 9:1 11:3 12:6 13:4 15:3 
4 2:0.42290182 5:1.3494382e-05 6:0.0001379453 8:7 9:1 10:1 11:2 12:1 13:1 14:1 15:1 
4 2:0.30603886 4:1 5:6.7471911e-06 6:0.00068110494 8:13 9:1 10:2 11:2 12:1 13:1 14:2 15:1 
4 2:0.55493681 4:1 5:1.3494382e-05 6:0.00024140428 8:12 9:1 10:1 11:2 12:1 13:3 14:1 15:1 
4 2:0.39193896 4:1 5:1.3494382e-05 8:14 9:2 10:1 11:2 12:2 13:4 15:1 
4 2:0.50016075 4:1 5:1.3494382e-05 8:6 9:1 11:1 12:1 13:1 15:1 
4 0:1 1:1 2:0.66317862 4:1 5:1.3494382e-05 8:12 9:1 10:1 11:3 12:2 13:2 15:3 
4 0:1 1:1 4:1 5:1.3494382e-05 8:8 9:1 10:1 11:2 12:2 13:2 15:1 
4 1:1 2:0.57929493 4:1 5:1.3494382e-05 8:25 9:5 10:2 11:6 12:4 13:5 15:4 
4 1:1 2:0.44335068 4:1 5:1.3494382e-05 6:0.011880539 8:12 11:2 12:2 13:2 14:1 15:1 
4 4:1 5:1.3494382e-05 6:0.0032934441 8:11 9:1 12:3 13:2 14:2 15:1 
4 2:0.61088011 4:1 5:1.3494382e-05 6:0.00048280857 8:12 10:1 11:1 12:2 13:4 14:1 15:1 
4 2:0.55164456 4:1 5:1.3494382e-05 8:6 9:1 11:3 12:1 13:1 15:1 
4 2:0.17533661 4:1 5:1.3494382e-05 8:9 9:1 10:1 11:2 12:2 13:2 15:1 
4 2:0.36682972 4:1 5:1.3494382e-05 8:7 9:2 11:2 12:1 13:2 
4 2:0.45474649 4:1 5:1.3494382e-05 8:12 11:1 12:2 13:3 15:3 
4 2:0.19497375 6:0.0061213229 8:6 9:1 11:2 14:1 
4 2:0.49177616 4:1 5:1.3494382e-05 6:0.0040693865 8:11 9:2 10:1 11:1 12:2 13:3 14:1 15:2 
4 2:0.4562834 4:1 5:1.3494382e-05 6:0.0016553437 8:12 9:1 10:1 11:1 12:1 13:4 14:2 
4 0:1 2:0.39857133 4:1 5:1.3494382e-05 6:5.1729489e-05 8:12 9:2 10:1 11:2 12:3 13:2 14:1 15:1 
4 4:1 5:1.3494382e-05 6:0.00082767183 8:11 9:2 12:2 13:3 14:1 15:1 
4 2:0.38904413 4:1 5:1.3494382e-05 6:0.0037590096 8:11 9:2 11:2 12:2 13:3 14:1 15:3 
4 2:0.37047466 4:1 5:1.1995006e-05 8:14 9:1 10:1 11:2 12:3 13:3 15:2 
4 2:0.78033225 4:1 5:1.2594757e-05 8:17 9:3 10:1 11:2 12:3 13:3 15:1 
4 2:0.76352184 4:1 5:1.3494382e-05 8:14 9:2 11:1 12:5 13:3 15:2 
4 2:0.82406893 3:1 4:1 5:1.3494382e-05 6:1.7243163e-05 8:11 11:1 12:3 13:2 14:1 
4 2:0.23229847 4:1 5:1.3494382e-05 6:0.0013966962 8:10 9:1 11:2 12:1 13:2 14:1 15:1 
4 0:1 2:0.51968051 4:1 5:1.0924024e-05 6:0.0053108942 8:16 9:1 11:1 12:5 13:6 14:1 15:2 
4 2:0.70391014 4:1 5:1.3494382e-05 6:0.0046297893 8:21 9:2 10:1 11:2 12:3 13:3 14:2 15:4 
4 0:1 1:1 2:0.60982985 4:1 5:1.3494382e-05 6:0.0065092941 8:14 9:2 11:3 12:3 13:2 14:2 15:2 
4 2:0.38294357 4:1 5:1.3494382e-05 6:0.0038279822 8:10 9:2 11:2 12:4 13:2 14:1 
4 0:1 1:1 2:0.45474649 4:1 5:1.3494382e-05 6:0.0061328183 8:14 9:1 11:2 12:2 13:2 14:3 15:2 
4 2:0.48222664 4:1 5:1.3494382e-05 6:0.019226127 8:16 9:2 11:3 12:3 13:4 14:1 15:3 
4 0:1 1:1 2:0.49781528 4:1 5:1.3494382e-05 8:12 9:1 11:3 12:4 13:2 15:1 
4 2:0.43394672 4:1 5:1.3494382e-05 6:0.0006552402 8:20 9:1 10:1 11:1 12:4 13:5 14:1 15:4 
4 2:0.76122356 4:1 5:1.3494382e-05 6:0.021821223 8:20 9:1 10:2 11:2 12:3 13:3 14:2 15:1 
4 2:0.74448987 4:1 5:1.3494382e-05 6:0.021191847 8:18 9:1 10:1 11:1 12:4 13:5 14:1 15:2 
4 2:0.52670033 5:1.3494382e-05 8:12 9:1 10:1 11:3 12:2 13:1 15:1 
4 0:1 1:1 2:0.082422778 8:6 9:1 11:3 12:1 15:1 
4 2:0.24825895 4:1 5:1.3494382e-05 6:3.4486326e-05 8:8 9:2 10:1 11:2 13:2 14:1 
4 0:1 1:1 2:0.21469642 4:1 5:1.3494382e-05 8:15 9:1 11:3 12:5 13:2 15:1 
4 2:0.31752209 4:1 5:1.0120787e-05 8:13 9:1 10:1 11:2 12:2 13:2 15:3 
4 1:1 2:0.47948389 4:1 5:1.3494382e-05 6:0.0032589578 8:13 9:1 10:1 11:3 12:2 13:1 14:1 15:3 
4 1:1 2:0.495944 4:1 5:1.3494382e-05 6:0.0032934441 8:13 9:2 10:1 11:3 12:3 13:2 14:1 15:1 
4 2:0.3301822 4:1 5:1.3494382e-05 8:11 11:1 12:2 13:3 15:2 
4 2:0.23485922 4:1 5:1.3494382e-05 6:0.019226127 8:9 11:2 12:2 13:1 14:1 
4 2:0.4432471 4:1 5:1.3494382e-05 6:0.0083112046 8:16 9:1 11:2 12:4 13:3 14:1 15:1 
4 0:1 1:1 2:0.36883997 4:1 5:1.3494382e-05 8:9 9:1 10:2 11:2 12:1 13:2 15:2 
4 2:0.57250115 4:1 5:1.3494382e-05 6:0.0023019623 8:16 9:3 10:2 11:3 13:2 14:4 15:1 
4 2:0.2097797 4:1 5:1.0870475e-05 6:5.1729489e-05 8:7 9:1 11:1 12:1 13:3 14:1 
4 3:1 4:1 5:8.2465669e-06 8:12 9:1 12:4 13:3 
4 2:0.39827702 8:4 9:1 11:3 15:1 
4 1:1 4:1 5:1.3494382e-05 6:0.003172742 8:9 9:1 10:1 11:1 12:1 13:2 14:2 
4 2:0.48619459 4:1 5:1.3494382e-05 6:1.7243163e-05 8:16 10:1 11:1 12:4 13:2 14:1 15:2 
4 2:0.37427827 4:1 5:1.3494382e-05 8:8 10:1 11:2 12:2 13:1 
4 1:1 2:0.54903241 4:1 5:1.3494382e-05 6:0.0041728455 8:17 11:2 12:5 13:3 14:1 15:3 
4 2:0.31220639 4:1 5:1.3494382e-05 6:0.0053108942 8:11 11:1 12:2 13:3 14:1 15:1 
4 2:0.21884387 4:1 5:1.3494382e-05 6:0.011466703 8:8 9:1 11:1 12:1 13:2 14:2 15:1 
4 0:1 1:1 2:0.33643211 4:1 5:1.3494382e-05 6:0.0013966962 8:19 9:1 11:2 12:6 13:4 14:1 15:2 
4 2:0.77065147 4:1 5:1.3494382e-05 6:0.0011035624 8:14 9:1 11:1 12:2 13:2 14:3 15:3 
4 0:1 1:1 5:1.3494382e-05 8:8 9:1 10:1 11:1 13:2 15:1 
4 0:1 1:1 2:0.77065147 4:1 5:1.3494382e-05 6:0.0029916888 8:10 9:1 11:2 12:1 13:3 14:2 15:1 
4 2:0.30544006 4:1 5:1.3494382e-05 6:6.8972652e-05 8:9 9:2 10:1 11:2 13:2 14:1 
4 0:1 2:0.70260263 4:1 5:1.3494382e-05 6:0.0006552402 8:22 9:2 10:2 11:2 12:6 13:4 14:2 15:5 
4 2:0.61193466 4:1 5:1.3494382e-05 6:5.1729489e-05 8:6 9:1 11:2 12:1 13:1 14:1 
4 2:0.41949218 4:1 5:1.3494382e-05 6:0.00027589061 8:12 9:2 11:3 12:2 13:2 14:1 15:3 
1.901735058356604 2:0.38004174 4:1 5:1.3494382e-05 6:0.0072507501 8:10 9:1 10:2 11:2 13:1 14:2 15:3 
4 1:1 2:0.83385872 4:1 5:1.3494382e-05 8:10 9:1 10:2 11:2 12:1 13:2 15:1 
4 3:1 4:1 5:1.3494382e-05 8:10 9:1 12:3 13:1 15:2 
4 2:0.57500289 4:1 5:1.3494382e-05 8:11 9:1 11:2 12:3 13:2 15:1 
4 2:0.28561574 4:1 5:1.2727656e-05 6:5.1729489e-05 8:32 9:4 10:2 11:2 12:6 13:8 14:1 15:1 
4 2:0.048056933 4:1 5:1.301244e-05 8:20 9:2 10:1 11:2 12:6 13:4 15:3 
4 0:1 1:1 2:0.40658385 4:1 5:1.3494382e-05 6:0.001793289 8:9 9:1 10:1 11:3 12:2 13:1 14:1 15:1 
4 2:0.38466338 4:1 5:1.3494382e-05 6:0.00041383591 8:11 9:1 11:1 12:3 13:3 14:1 15:2 
4 2:0.41923399 4:1 5:1.3494382e-05 8:9 9:1 11:3 12:4 13:2 
4 2:0.49694935 4:1 5:1.3494382e-05 8:10 9:1 11:2 12:3 13:3 
4 0:1 1:1 2:0.48002171 4:1 5:1.3494382e-05 8:4 9:1 11:2 12:1 13:1 
4 2:0.47718016 4:1 5:1.3494382e-05 6:6.8972652e-05 8:4 9:1 11:1 12:1 13:1 14:1 
4 2:0.87115889 4:1 5:1.3494382e-05 8:8 9:2 10:2 11:1 12:1 13:1 15:1 
4 2:0.21697336 4:1 5:1.3494382e-05 8:8 9:1 10:1 11:2 12:2 13:2 15:1 
4 2:0.45580711 4:1 5:1.3494382e-05 6:0.0042590613 8:11 9:2 11:1 12:3 13:4 14:1 
4 2:0.32058819 4:1 5:1.3494382e-05 8:8 11:2 12:3 13:1 15:1 
4 0:1 2:0.49443343 4:1 5:1.3494382e-05 8:11 9:3 11:1 12:3 13:2 15:3 
4 0:1 1:1 2:0.50409905 4:1 5:1.3494382e-05 8:14 9:1 10:1 11:2 12:2 13:4 15:1 
4 0:1 1:1 2:0.66671004 4:1 5:1.3494382e-05 8:7 10:2 11:2 12:1 13:1 15:1 
4 2:0.47688493 4:1 5:1.3494382e-05 8:14 9:1 11:1 12:5 13:4 15:2 
4 2:0.38551707 4:1 5:1.3494382e-05 6:0.00043107908 8:11 9:1 10:1 11:2 12:2 13:2 14:1 
4 0:1 1:1 4:1 5:1.3494382e-05 8:15 9:1 11:1 12:6 13:5 15:1 
4 1:1 2:0.77960414 4:1 5:1.3494382e-05 8:8 11:2 12:1 13:3 15:1 
4 4:1 5:1.3494382e-05 6:0.00024140428 8:9 9:1 12:3 13:3 14:1 15:1 
4 2:0.34328155 4:1 5:1.3494382e-05 6:3.4486326e-05 8:10 9:1 11:2 12:2 13:1 14:1 15:1 
4 1:1 2:0.26016002 4:1 5:1.3494382e-05 6:5.1729489e-05 8:11 9:1 11:2 12:1 13:3 14:1 15:1 
4 2:0.34876271 4:1 5:1.3494382e-05 6:0.0043107908 8:5 9:1 10:1 11:2 13:1 14:1 
0.3505454075899556 2:0.62763147 4:1 5:1.3494382e-05 6:0.012277132 8:16 9:1 10:1 11:3 12:3 13:2 14:2 15:2 
4 2:0.48000409 4:1 5:1.3494382e-05 6:0.011846053 8:13 9:2 10:1 11:3 12:2 13:2 14:1 
3.80152792511919 0:1 2:0.36112585 4:1 5:1.3494382e-05 8:11 9:2 10:1 11:3 12:1 13:1 15:1 
4 2:0.26732549 4:1 5:1.3494382e-05 8:9 9:1 10:1 11:1 12:3 13:2 15:1 
4 1:1 2:0.13951937 4:1 5:1.3494382e-05 6:0.00089664448 8:18 9:2 10:2 11:2 12:3 13:3 14:3 15:3 
4 4:1 5:1.3494382e-05 8:13 9:1 11:1 12:3 13:4 15:1 
4 1:1 2:0.18324877 4:1 5:1.3494382e-05 8:16 9:1 10:2 11:3 12:4 13:2 15:2 
4 2:0.63177144 4:1 5:1.3494382e-05 8:10 9:1 10:2 11:2 12:1 13:2 15:1 
4 0:1 2:0.50016075 4:1 5:1.3494382e-05 6:0.01248405 8:10 9:1 10:1 11:2 12:2 13:2 14:1 
4 0:1 2:0.43554328 8:2 9:1 11:2 
4 0:1 1:1 2:0.19996899 4:1 5:1.3494382e-05 6:0.0097768735 8:9 9:1 10:1 11:2 12:1 13:1 14:2 
4 5:6.7471911e-06 6:0.0013737053 8:9 9:1 10:1 12:2 13:1 14:3 
4 2:0.33039928 4:1 5:1.3494382e-05 6:0.0031382557 8:15 9:2 10:2 11:1 12:2 13:4 14:2 
4 2:0.5582567 4:1 5:1.3494382e-05 6:0.0061902955 8:15 9:1 10:1 11:2 12:3 13:4 14:2 15:1 
4 4:1 5:1.2881001e-05 8:9 12:3 13:2 15:1 
4 2:0.058123819 4:1 5:1.3494382e-05 6:5.1729489e-05 8:10 9:1 11:2 12:4 13:2 14:1 
4 2:0.67188401 4:1 5:1.1245319e-05 6:0.022278167 8:24 9:2 11:3 12:6 13:4 14:1 15:3 
4 2:0.87115889 4:1 5:4.4981274e-06 6:0.0001379453 8:5 9:1 10:1 11:1 13:1 14:1 
4 0:1 1:1 2:0.88029984 4:1 5:1.3494382e-05 6:0.01924337 8:15 9:1 11:2 12:5 13:4 14:1 
4 2:0.12336095 4:1 5:1.3494382e-05 8:9 9:1 10:1 11:1 12:1 13:3 15:2 
4 2:0.59245947 6:0.00036210642 8:6 9:1 11:3 12:1 14:1 
4 4:1 5:1.3494382e-05 8:7 9:1 11:1 12:2 13:2 15:2 
4 2:0.82406893 4:1 5:1.3494382e-05 6:0.0019657206 8:21 9:2 10:3 11:1 12:4 13:3 14:3 15:3 
4 1:1 2:0.35082473 4:1 5:1.3494382e-05 8:10 9:2 10:1 11:3 12:2 13:2 15:1 
4 2:0.5790578 4:1 5:1.3494382e-05 8:10 9:3 11:2 12:3 13:1 15:2 
4 2:0.24001441 4:1 5:1.3494382e-05 8:6 9:1 10:1 11:2 12:1 13:1 15:1 
4 1:1 2:0.36555896 4:1 5:1.3494382e-05 6:0.0066041315 8:19 9:1 10:1 11:1 12:3 13:6 14:3 15:2 
4 2:0.20029738 4:1 5:1.3494382e-05 6:0.00017243163 8:12 9:2 10:1 11:2 12:1 13:2 14:1 15:3 
4 2:0.45476956 4:1 5:1.3494382e-05 6:0.0032589578 8:10 9:1 10:1 11:2 12:1 13:3 14:1 15:1 
4 4:1 5:1.3494382e-05 8:11 12:3 13:4 
4 0:1 1:1 4:1 5:1.3494382e-05 6:0.0040090354 8:15 9:2 11:1 12:2 13:4 14:2 15:1 
4 2:0.059185069 4:1 5:9.8958803e-06 8:7 9:1 11:1 13:3 15:1 
4 2:0.55526696 4:1 5:1.3494382e-05 8:9 9:1 10:1 11:2 12:1 13:2 15:1 
4 0:1 1:1 2:0.43803925 4:1 5:1.3494382e-05 8:7 9:1 11:2 12:2 13:2 
4 2:0.72884417 4:1 5:1.3494382e-05 8:11 9:1 10:1 11:1 12:2 13:3 15:2 
4 2:0.33013864 4:1 5:1.3494382e-05 8:11 9:1 11:1 12:3 13:3 15:1 
4 2:0.0049124186 4:1 5:1.3494382e-05 8:9 11:1 12:3 13:2 
4 2:0.83848376 4:1 5:1.3494382e-05 8:6 11:1 12:2 13:2 
4 0:1 1:1 4:1 5:1.3494382e-05 8:15 9:1 11:1 12:3 13:4 15:2 
4 2:0.60091873 3:1 4:1 5:1.3494382e-05 6:0.00036210642 8:8 9:1 11:1 12:3 13:2 14:1 
4 0:1 1:1 2:0.45148594 4:1 5:1.3494382e-05 6:0.0026726903 8:20 9:2 11:3 12:6 13:4 14:1 15:3 
4 4:1 5:1.3494382e-05 6:0.00074145601 8:11 12:2 13:4 14:2 
4 2:0.55912338 4:1 5:6.7471911e-06 6:0.0039716752 8:14 9:1 10:2 11:2 12:3 13:1 14:3 15:2 
4 2:0.087619854 4:1 5:1.0495631e-05 6:1.7243163e-05 8:15 9:1 10:1 11:1 12:3 13:4 14:1 15:1 
4 0:1 2:0.59807148 4:1 5:1.3494382e-05 6:0.0090526606 8:14 9:1 10:2 11:2 12:2 13:2 14:2 15:1 
4 2:0.36555896 4:1 5:1.3494382e-05 6:0.0020002069 8:13 9:1 11:1 12:2 13:5 14:1 15:2 
4 2:0.26512259 4:1 5:1.3333735e-05 6:0.016967272 8:19 9:3 11:2 12:5 13:6 14:1 15:2 
4 1:1 2:0.47647249 4:1 5:1.2650983e-05 8:12 9:2 11:4 12:4 13:2 15:1 
4 2:0.6105052 4:1 5:1.3494382e-05 8:7 11:2 12:1 13:1 
4 4:1 5:1.3494382e-05 8:16 9:1 10:1 11:1 12:5 13:4 15:2 
4 2:0.43557945 4:1 5:1.3494382e-05 8:9 9:2 11:2 12:2 13:1 15:1 
4 4:1 5:9.6388445e-06 6:0.0017243163 8:10 9:2 10:2 12:1 13:4 14:1 
4 1:1 2:0.26896856 4:1 5:1.3494382e-05 6:0.029158189 8:18 9:3 10:1 11:2 12:2 13:5 14:1 15:2 
4 2:0.60759694 4:1 5:1.3494382e-05 6:0.012518536 8:9 10:1 11:2 12:2 13:1 14:1 15:1 
4 2:0.77960414 4:1 5:1.0971784e-05 8:16 10:1 11:1 12:5 13:4 15:2 
4 4:1 5:1.3494382e-05 8:5 9:1 12:1 13:3 
4 0:1 2:0.38543291 4:1 5:1.3494382e-05 6:0.0001379453 8:6 9:1 10:1 11:2 12:1 13:1 14:1 
4 2:0.69645918 4:1 5:1.3494382e-05 8:12 9:1 11:1 12:4 13:3 15:2 
4 0:1 2:0.82600914 4:1 5:1.3494382e-05 8:19 9:1 11:1 12:5 13:6 15:1 
4 0:1 1:1 2:0.67292815 4:1 5:1.3494382e-05 6:6.8972652e-05 8:9 9:1 10:2 11:2 13:1 14:1 
4 2:0.33432332 4:1 5:1.3494382e-05 8:9 9:1 11:2 12:3 13:3 
4 2:0.014002801 4:1 5:1.3494382e-05 6:1.7243163e-05 8:8 9:1 10:1 11:1 12:2 13:1 14:1 
4 2:0.45580711 4:1 5:1.3494382e-05 6:7.7594234e-05 8:9 10:1 11:1 12:1 13:1 14:2 
4 2:0.21308868 8:4 9:2 10:1 11:2 
4 4:1 5:9.5254463e-06 8:10 9:1 12:3 13:3 
4 0:1 1:1 2:0.2571938 4:1 5:1.3494382e-05 6:5.1729489e-05 8:7 9:1 10:1 11:2 12:1 13:1 14:1 15:1 
4 2:0.74094932 4:1 5:1.3494382e-05 6:0.0083112046 8:11 9:1 11:1 12:3 13:2 14:1 15:1 
4 2:0.64210277 4:1 5:1.236985e-05 6:0.0083112046 8:14 9:1 11:2 12:3 13:3 14:1 
4 0:1 1:1 4:1 5:1.3494382e-05 8:8 9:2 11:1 12:3 13:1 15:1 
4 4:1 5:1.3494382e-05 6:0.00039659275 8:24 9:2 10:1 12:5 13:8 14:1 15:1 
4 4:1 5:1.3494382e-05 8:6 9:1 10:1 11:1 12:2 13:2 
4 2:0.42270958 4:1 5:1.3494382e-05 8:12 9:1 10:1 11:1 12:3 13:2 15:2 
4 2:0.60609226 3:1 4:1 5:1.3494382e-05 8:20 9:2 11:2 12:6 13:3 15:1 
4 0:1 1:1 2:0.47688493 4:1 5:1.2144944e-05 8:17 9:2 11:2 12:6 13:4 15:2 
4 4:1 5:1.0120787e-05 6:0.029158189 8:10 9:1 10:1 12:1 13:2 14:1 
4 0:1 1:1 2:0.61389585 4:1 5:1.3494382e-05 8:11 9:2 11:2 12:3 13:3 15:2 
4 2:0.67760198 4:1 5:1.3494382e-05 8:16 11:1 12:4 13:4 15:2 
4 2:0.55232459 4:1 5:1.3494382e-05 6:0.0060437287 8:12 10:1 11:1 12:2 13:3 14:2 
4 2:0.50474595 4:1 5:1.3494382e-05 6:0.0020002069 8:11 9:2 10:1 11:3 12:2 13:2 14:1 15:1 
4 2:0.10773567 4:1 5:1.3494382e-05 6:0.011846053 8:11 9:1 11:1 12:3 13:4 14:1 
4 2:0.40670921 4:1 5:1.3494382e-05 8:7 9:1 11:1 12:2 13:1 15:1 
4 4:1 5:1.3494382e-05 8:6 9:1 11:2 12:1 13:1 
4 2:0.3138306 8:5 9:1 11:3 12:1 15:1 
4 2:0.23432363 4:1 5:1.1245319e-05 8:13 10:1 11:1 12:4 13:3 
4 1:1 2:0.43803925 4:1 5:1.3494382e-05 8:9 9:1 11:2 12:2 13:2 15:1 
2.447685162998646 2:0.39338777 4:1 5:8.9962548e-06 6:0.01240933 8:16 9:1 10:1 11:2 12:1 13:2 14:3 15:2 
4 1:1 2:0.49284537 4:1 5:1.3494382e-05 8:14 10:1 11:2 12:3 13:4 15:1 
4 2:0.3695471 4:1 5:1.3494382e-05 8:15 9:3 11:2 12:5 13:3 15:1 
4 0:1 1:1 2:0.33896835 4:1 5:1.3494382e-05 8:14 9:1 10:1 11:2 12:4 13:3 15:2 
4 0:1 1:1 4:1 5:1.3494382e-05 8:10 10:1 11:1 12:3 13:2 15:1 
4 2:0.54903241 4:1 5:1.3494382e-05 8:18 10:1 11:1 12:5 13:4 15:3 
4 2:0.052369072 4:1 5:1.3494382e-05 8:8 9:2 10:2 11:2 12:1 13:2 
4 2:0.17075855 4:1 5:1.3494382e-05 6:0.0015087768 8:14 9:2 11:3 12:3 13:2 14:2 15:1 
4 2:0.18689122 4:1 5:1.3494382e-05 6:0.00010345898 8:9 9:1 11:2 12:3 13:2 14:1 
4 0:1 1:1 4:1 5:1.3494382e-05 8:10 9:1 10:1 11:2 12:2 13:2 15:1 
4 1:1 2:0.2870028 4:1 5:1.3494382e-05 6:0.003276201 8:12 9:1 10:1 11:3 12:2 13:2 14:1 15:1 
4 2:0.46918891 4:1 5:1.3494382e-05 8:15 9:2 10:2 11:3 12:2 13:3 15:1 
4 2:0.6604581 4:1 5:1.236985e-05 8:16 9:1 11:2 12:3 13:4 15:2 
4 2:0.36481502 4:1 5:1.3494382e-05 8:13 9:3 11:3 12:3 13:1 15:2 
4 0:1 1:1 4:1 5:1.3494382e-05 6:0.00025864745 8:12 9:1 10:1 11:1 12:3 13:3 14:1 15:2 
4 0:1 1:1 2:0.48138124 5:1.3494382e-05 8:15 11:2 12:3 13:2 15:2 
4 0:1 1:1 2:0.39147443 8:6 9:2 11:4 
4 1:1 2:0.11222099 4:1 5:1.3494382e-05 6:0.011846053 8:11 9:2 11:3 12:1 13:3 14:1 15:1 
4 3:1 4:1 5:1.3494382e-05 8:6 9:1 12:2 13:3 
4 2:0.0024562093 4:1 5:1.3494382e-05 8:6 9:2 11:2 12:1 13:2 
4 0:1 1:1 2:0.19007476 4:1 5:1.035753e-05 6:0.019226127 8:19 9:2 11:2 12:6 13:4 14:1 15:2 
4 2:0.54437542 4:1 5:1.3494382e-05 6:0.019226127 8:6 9:1 11:1 12:2 13:1 14:1 15:1 
4 2:0.077015405 4:1 5:1.0120787e-05 8:12 9:2 10:1 11:1 12:3 13:2 15:2 
4 0:1 2:0.5740056 4:1 5:1.3494382e-05 8:10 9:1 11:1 12:1 13:2 15:2 
4 0:1 1:1 2:0.28254377 5:1.3494382e-05 8:8 9:1 11:2 12:2 13:2 15:2 
4 2:0.59807148 4:1 5:1.3494382e-05 6:8.6215815e-05 8:7 10:2 11:1 13:2 14:1 
4 0:1 1:1 2:0.19612987 4:1 5:1.3494382e-05 6:0.0017243163 8:8 9:1 10:1 11:2 12:1 13:2 14:1 15:1 
4 4:1 5:1.3494382e-05 8:11 9:1 11:1 12:3 13:4 15:1 
4 0:1 1:1 2:0.54118584 4:1 5:1.3494382e-05 8:10 9:1 10:1 11:3 12:2 13:1 15:2 
4 1:1 2:0.71521477 4:1 5:1.3494382e-05 8:11 9:1 10:1 11:4 12:2 13:2 15:1 
4 0:1 2:0.79714266 4:1 5:1.3494382e-05 6:0.02567507 8:11 11:1 12:3 13:3 14:1 15:2 
4 2:0.46465666 4:1 5:1.3494382e-05 8:6 9:1 11:2 13:1 15:1 
4 0:1 2:0.54776704 4:1 5:1.3494382e-05 8:11 9:1 10:1 11:2 12:2 13:2 15:2 
4 2:0.67760198 4:1 5:1.3494382e-05 8:9 11:1 12:3 13:2 15:1 
4 2:0.44993848 8:6 9:1 11:3 12:1 15:1 
4 2:0.63743295 4:1 5:1.3494382e-05 6:0.0023105839 8:19 9:1 10:1 11:2 12:5 13:4 14:1 15:2 
4 2:0.41799972 4:1 5:1.3494382e-05 6:0.0030003104 8:17 9:3 10:1 11:3 12:2 13:5 14:1 15:2 
4 2:0.15048309 4:1 5:1.2594757e-05 8:15 9:2 10:1 11:2 12:3 13:5 
4 2:0.33896835 4:1 5:1.3494382e-05 6:0.011880539 8:8 9:1 11:1 12:2 13:1 14:1 15:2 
4 0:1 2:0.59779573 4:1 5:1.3494382e-05 8:10 9:2 11:3 12:3 13:1 15:2 
4 2:0.70685215 4:1 5:1.2144944e-05 8:16 9:1 11:2 12:6 13:5 15:1 
4 1:1 4:1 5:1.3494382e-05 6:0.011846053 8:12 9:1 11:1 12:3 13:3 14:1 15:1 
4 1:1 2:0.77547948 4:1 5:1.3494382e-05 8:14 9:1 10:2 11:2 12:2 13:3 15:1 
4 2:0.49266145 4:1 5:1.3494382e-05 6:0.012466807 8:14 9:1 10:1 11:2 12:2 13:3 14:2 
4 0:1 1:1 4:1 5:1.2954607e-05 8:11 9:1 11:1 12:4 13:5 15:1 
4 2:0.24110648 4:1 5:1.2182428e-05 6:1.7243163e-05 8:26 9:2 10:1 11:2 12:8 13:6 14:1 15:3 
4 2:0.74177422 4:1 5:1.3494382e-05 8:10 9:1 10:1 11:1 12:2 13:2 15:2 
4 2:0.16382815 5:1.3494382e-05 6:0.00017243163 8:6 9:1 11:2 13:1 14:1 15:1 
4 0:1 1:1 2:0.34182869 4:1 5:1.3494382e-05 8:6 9:1 10:1 11:2 12:1 13:1 15:1 
4 8:1 11:1 
4 2:0.50817601 4:1 5:1.3494382e-05 6:0.00015518847 8:5 9:1 11:2 13:1 14:1 
4 2:0.51968051 4:1 5:8.4339889e-06 6:0.008035314 8:8 11:1 12:1 13:2 14:3 15:1 
4 4:1 5:1.3494382e-05 6:0.0072335069 7:1 8:13 9:3 11:1 12:4 13:3 14:2 
4 2:0.24645447 4:1 5:1.3494382e-05 6:0.01063041 8:8 9:1 11:1 12:1 13:1 14:2 15:1 
4 2:0.28590401 4:1 5:1.3494382e-05 6:0.01924337 8:6 10:1 11:1 12:1 13:1 14:1 15:1 
4 2:0.54023505 4:1 5:1.3494382e-05 6:0.00058626754 8:19 9:2 10:2 11:2 12:2 13:5 14:1 15:2 
4 2:0.74855654 4:1 5:1.2048556e-05 6:0.00055178122 8:17 9:1 10:1 11:1 12:3 13:4 14:1 15:1 
4 2:0.53919612 5:1.3494382e-05 6:0.011846053 8:9 9:1 11:3 12:2 13:2 14:1 
4 4:1 5:1.2048556e-05 8:15 9:1 12:4 13:4 15:2 
4 0:1 1:1 2:0.36463056 4:1 5:1.3494382e-05 6:0.00041383591 8:9 9:1 11:3 12:3 13:1 14:1 15:1 
4 2:0.62502044 4:1 5:1.3494382e-05 8:19 9:1 10:1 11:2 12:3 13:3 15:2 
4 4:1 5:1.3494382e-05 6:0.00039659275 8:13 9:1 12:4 13:3 14:2 15:2 
4 4:1 5:1.1245319e-05 8:12 9:2 12:4 13:3 
4 4:1 5:1.3494382e-05 8:5 12:1 13:1 15:1 
4 0:1 1:1 2:0.67428339 4:1 5:1.1509914e-05 6:0.016346519 8:18 9:1 11:3 12:5 13:4 14:1 
4 2:0.55980721 7:1 8:5 9:1 11:1 12:1 14:2 
4 2:0.78383692 3:1 4:1 5:1.3494382e-05 6:0.00053453806 8:15 9:2 11:2 12:4 13:4 14:1 15:1 
4 4:1 5:1.3494382e-05 6:0.01924337 8:8 11:1 12:2 13:2 14:1 15:1 
4 2:0.51758657 4:1 5:1.3494382e-05 6:0.021191847 8:11 9:1 10:1 11:2 12:2 13:1 14:1 15:3 
4 1:1 2:0.39675372 4:1 5:1.3494382e-05 6:0.012518536 8:14 9:1 10:1 11:2 13:2 14:1 15:1 
4 2:0.82406893 4:1 5:1.3494382e-05 6:0.0059488913 8:17 9:1 10:1 11:1 12:5 13:4 14:2 15:2 
4 2:0.5144542 4:1 5:1.3494382e-05 8:7 9:1 10:1 11:2 13:2 15:1 
4 2:0.31718759 8:7 9:3 11:4 
4 2:0.44410241 4:1 5:1.3494382e-05 6:0.00051729489 8:10 9:1 10:1 11:2 12:3 13:1 14:1 15:1 
4 2:0.33924682 4:1 5:1.3494382e-05 8:10 9:2 10:1 11:3 12:2 13:3 
4 1:1 2:0.24256511 4:1 5:1.3494382e-05 8:12 9:1 11:1 12:5 13:4 15:1 
4 1:1 2:0.61051744 4:1 5:1.3494382e-05 8:14 9:1 11:4 12:4 13:2 15:1 
4 2:0.48619459 4:1 5:1.3494382e-05 6:0.0031037694 8:14 9:3 11:1 12:3 13:2 14:2 15:1 
4 0:1 1:1 2:0.22408693 4:1 5:1.3494382e-05 6:0.029158189 8:12 9:1 10:1 11:2 12:1 13:3 14:1 15:2 
4 4:1 5:1.3494382e-05 8:9 9:1 12:3 13:2 
4 2:0.48517022 4:1 5:1.3494382e-05 8:13 9:2 10:2 11:3 12:1 13:3 
4 0:1 1:1 2:0.38197138 5:1.3494382e-05 8:9 9:1 10:1 11:3 12:3 13:1 
4 1:1 2:0.73621928 4:1 5:1.3494382e-05 8:12 11:3 12:4 13:1 15:3 
4 2:0.48112705 3:1 4:1 5:1.3494382e-05 8:6 9:1 11:1 12:2 13:2 
4 2:0.31627391 4:1 5:1.3494382e-05 8:11 9:2 11:3 12:3 13:2 
4 2:0.74855654 4:1 5:1.3494382e-05 7:1 8:8 9:1 10:1 11:1 12:2 13:1 14:1 15:1 
4 1:1 2:0.5825408 4:1 5:1.3494382e-05 8:7 11:3 12:2 13:1 
4 0:1 1:1 2:0.34297836 4:1 5:1.3494382e-05 8:12 9:1 11:2 12:2 13:4 
4 4:1 5:1.3494382e-05 6:0.00020691796 8:9 9:1 10:1 11:1 12:2 13:2 14:1 15:1 
4 2:0.766632 4:1 5:1.1084671e-05 6:0.00041383591 8:11 11:1 12:2 13:4 14:1 
4 0:1 1:1 2:0.45474649 4:1 5:1.3494382e-05 8:11 11:2 12:2 13:2 
4 2:0.31042316 4:1 5:1.3494382e-05 8:8 10:2 11:1 12:1 13:2 
4 0:1 1:1 2:0.79404515 4:1 5:1.3494382e-05 6:0.0038969549 8:16 9:1 10:1 11:3 12:5 13:3 14:1 15:1 
4 2:0.38532573 4:1 5:1.3494382e-05 6:0.0011466703 8:12 9:2 11:2 12:2 13:2 14:2 15:2 
4 0:1 4:1 5:1.3494382e-05 6:0.0062937545 8:13 9:2 11:2 12:3 13:3 14:2 
4 1:1 4:1 5:1.0380294e-05 8:10 9:1 11:1 12:3 13:3 15:1 
4 2:0.32954646 4:1 5:1.1807584e-05 6:7.7594234e-05 8:14 9:2 10:1 11:2 12:2 13:4 14:2 
4 2:0.61813073 4:1 5:1.3494382e-05 6:0.0032934441 8:10 9:1 10:1 11:2 13:2 14:1 15:1 
4 2:0.45745379 4:1 5:1.2144944e-05 8:20 9:3 10:2 11:2 12:3 13:5 15:2 
4 1:1 2:0.37047466 4:1 5:1.3494382e-05 6:0.0032589578 8:14 11:2 12:3 13:3 14:1 15:1 
4 4:1 5:1.3494382e-05 8:11 12:4 13:3 15:2 
4 0:1 1:1 2:0.35138778 4:1 5:1.3494382e-05 8:16 9:2 10:1 11:3 12:3 13:3 15:4 
4 4:1 5:1.1245319e-05 8:8 10:1 12:1 13:3 15:1 
4 2:0.55854965 4:1 5:1.3494382e-05 8:8 9:1 11:1 12:3 13:2 15:1 
4 5:1.3494382e-05 6:0.0003276201 8:9 9:2 11:2 13:1 14:1 15:2 
4 0:1 1:1 2:0.52924692 4:1 5:1.3494382e-05 8:8 9:1 11:3 12:3 13:1 
4 2:0.60423729 4:1 5:1.3494382e-05 8:15 9:2 11:2 12:3 13:3 15:3 
4 2:0.36154128 6:0.0013104804 8:6 11:2 12:1 14:1 
4 0:1 1:1 4:1 5:1.1848726e-05 8:7 9:1 10:1 11:2 12:2 13:2 
4 0:1 1:1 4:1 5:1.3494382e-05 8:12 9:1 11:2 12:4 13:3 15:1 
4 2:0.71249383 4:1 5:9.3710988e-06 6:5.1729489e-05 8:13 9:1 10:1 11:2 12:3 13:3 14:1 15:3 
4 2:0.19187993 5:1.3494382e-05 8:6 9:1 11:2 12:1 13:1 15:1 
4 2:0.11041281 4:1 5:1.3494382e-05 6:0.0001379453 8:4 9:1 11:1 12:1 13:1 14:1 
4 0:1 4:1 5:8.9962548e-06 8:7 9:1 11:1 12:2 13:2 15:1 
4 4:1 5:1.3494382e-05 8:7 9:1 11:1 12:1 13:2 15:1 
4 1:1 2:0.57391378 4:1 5:1.3494382e-05 8:12 9:1 10:1 11:3 12:2 13:2 
4 2:0.22376058 4:1 5:1.6867978e-06 8:7 9:1 10:1 11:2 12:1 13:1 15:1 
4 2:0.22066439 4:1 5:1.3494382e-05 8:8 9:1 10:1 11:2 12:1 13:1 15:2 
4 2:0.15949044 4:1 5:1.3494382e-05 8:7 11:1 12:2 13:1 15:1 
4 2:0.5495183 4:1 5:1.3494382e-05 6:0.0042590613 8:8 10:1 11:1 12:1 13:2 14:1 15:1 
4 2:0.29564685 4:1 5:1.3494382e-05 8:10 9:1 10:1 11:2 12:2 13:2 15:1 
4 0:1 1:1 2:0.66671281 4:1 5:1.3494382e-05 6:0.00084491499 8:12 9:2 10:1 11:2 12:4 13:2 14:1 15:1 
4 0:1 2:0.5277913 4:1 5:1.3494382e-05 6:3.4486326e-05 8:9 9:1 10:1 11:2 12:2 13:1 14:1 15:1 
4 0:1 2:0.4635581 4:1 5:1.3494382e-05 6:0.0038969549 8:12 9:1 10:2 11:2 12:1 13:1 14:1 15:1 
4 2:0.82406893 3:1 4:1 5:1.3494382e-05 8:13 9:2 11:1 12:5 13:3 15:1 
4 2:0.42173818 4:1 5:1.0890203e-05 8:13 9:1 11:2 12:4 13:3 
4 0:1 2:0.55571193 4:1 5:1.3494382e-05 6:0.01248405 8:18 9:3 11:4 12:4 13:3 14:1 15:1 
4 1:1 4:1 5:1.3494382e-05 8:6 9:1 10:1 11:1 12:2 13:1 15:1 
4 3:1 4:1 5:1.3494382e-05 6:6.8972652e-05 8:7 9:1 12:2 13:2 14:1 15:1 
4 0:1 4:1 5:1.3494382e-05 6:0.002327827 8:8 9:1 10:1 11:1 12:1 13:2 14:1 
4 2:0.39143052 4:1 5:1.3494382e-05 8:7 11:1 12:2 13:2 
4 1:1 4:1 5:1.0602729e-05 6:0.0085008794 8:15 9:2 10:1 11:1 12:4 13:2 14:2 15:2 
4 2:0.70927565 4:1 5:1.3494382e-05 6:0.0040693865 8:8 10:1 11:2 12:2 13:2 14:1 
4 2:0.2410737 4:1 5:1.3494382e-05 8:7 9:1 10:1 11:2 12:1 13:2 
4 4:1 5:1.3494382e-05 8:8 9:1 11:1 12:3 13:2 15:1 
4 1:1 2:0.60022958 4:1 5:1.3494382e-05 6:5.1729489e-05 8:22 9:1 10:3 11:2 12:4 13:5 14:1 15:2 
4 2:0.18494196 5:1.3494382e-05 8:7 9:2 10:2 11:3 13:1 
4 2:0.33335641 4:1 5:1.3494382e-05 8:11 9:1 10:1 11:2 12:2 13:2 15:1 
4 4:1 5:1.3494382e-05 8:10 9:1 11:1 12:1 13:2 15:3 
4 2:0.77547948 4:1 5:1.3494382e-05 6:0.0028796082 8:10 9:1 10:1 11:1 12:1 13:3 14:1 
4 0:1 2:0.78292157 4:1 5:1.3494382e-05 6:0.0042590613 8:13 9:2 10:3 11:3 13:2 14:2 
4 2:0.14907912 4:1 5:1.3494382e-05 8:7 9:1 10:1 11:2 12:1 13:1 15:1 
4 2:0.1508792 4:1 5:1.3494382e-05 8:10 9:3 11:4 12:1 13:1 
4 4:1 5:1.3494382e-05 8:6 9:1 11:1 12:2 13:2 
4 0:1 1:1 2:0.37185193 4:1 5:1.3494382e-05 8:11 9:2 10:1 11:3 12:3 13:2 15:1 
4 0:1 2:0.65789234 4:1 5:1.3494382e-05 6:0.00070696969 8:8 9:1 11:1 12:2 13:2 14:1 
4 2:0.61211158 4:1 5:9.6388445e-06 8:9 9:1 10:1 11:2 12:2 13:2 
4 2:0.2978845 4:1 5:1.3494382e-05 8:7 9:1 10:2 11:1 12:1 13:2 15:1 
4 2:0.81506658 4:1 5:1.2851793e-05 6:0.0010173466 8:13 10:1 11:1 12:4 13:3 14:1 15:1 
4 4:1 5:9.9367724e-06 6:0.0017070731 8:12 9:1 12:2 13:5 14:2 15:1 
4 0:1 2:0.37114626 4:1 5:1.3494382e-05 6:0.009888954 8:12 9:1 11:1 12:2 13:3 14:2 15:1 
4 2:0.14308659 4:1 5:1.3494382e-05 6:0.00084491499 8:13 9:2 11:2 12:3 13:4 14:1 15:1 
4 1:1 4:1 5:1.3494382e-05 6:0.0027416629 8:7 10:1 11:1 12:1 13:1 14:1 15:1 
4 2:0.66671004 4:1 5:1.3494382e-05 6:0.00055178122 8:10 9:1 11:1 12:1 13:4 14:1 15:1 
4 2:0.57169411 4:1 5:1.3494382e-05 8:7 9:1 11:1 12:2 13:2 
4 2:0.67169332 4:1 5:1.3494382e-05 8:5 9:1 11:1 12:2 13:1 
4 2:0.67487179 4:1 5:1.3494382e-05 8:10 9:1 11:2 12:2 13:3 15:1 
4 1:1 2:0.7941892 4:1 5:1.3494382e-05 8:11 10:1 11:3 12:2 13:1 15:1 
4 2:0.38739872 4:1 5:1.3494382e-05 6:0.0013966962 8:8 11:1 12:2 13:1 14:1 15:1 
1.160008773313861 2:0.26409851 7:1 8:3 9:1 11:1 14:1 
4 2:0.65661413 4:1 5:1.3494382e-05 8:21 9:2 10:2 11:3 12:5 13:3 15:4 
4 0:1 1:1 2:0.31427702 4:1 5:1.3494382e-05 8:6 10:1 11:2 12:1 13:1 
4 2:0.80113462 4:1 5:1.3494382e-05 6:0.0065179156 8:14 9:1 10:2 11:2 12:1 13:3 14:2 15:2 
4 2:0.28730503 4:1 5:1.3494382e-05 6:0.00029313377 8:15 9:2 11:1 12:4 13:4 14:1 
4 2:0.58367301 4:1 5:1.3494382e-05 6:0.00048280857 8:13 11:1 12:3 13:3 14:1 
4 2:0.53601683 4:1 5:1.3494382e-05 6:0.02567507 8:17 9:2 11:2 12:3 13:2 14:1 15:2 
4 2:0.39805679 4:1 5:1.3494382e-05 6:0.018070835 8:21 9:1 10:2 11:2 12:5 13:4 14:1 15:2 
4 2:0.67169332 3:1 4:1 5:1.3494382e-05 6:0.0001379453 8:7 11:1 12:3 13:1 14:1 
4 2:0.29630743 4:1 5:1.3494382e-05 8:10 9:2 11:2 12:2 13:4 15:2 
4 2:0.26106129 4:1 5:1.3494382e-05 6:0.012518536 8:7 9:2 11:2 12:1 13:1 14:1 15:1 
4 0:1 2:0.66671281 4:1 5:1.3494382e-05 8:16 9:1 10:1 11:1 12:4 13:6 15:1 
4 1:1 4:1 5:1.3494382e-05 8:5 11:1 12:2 13:1 
4 2:0.59768119 4:1 5:1.3494382e-05 8:9 9:1 11:1 12:2 13:4 15:2 
4 0:1 2:0.40357016 4:1 5:1.1245319e-05 8:11 9:2 11:2 12:4 13:4 
4 2:0.30115199 4:1 5:1.3494382e-05 8:8 9:2 11:3 13:1 15:2 
4 2:0.13537474 4:1 5:1.2819663e-05 8:12 9:2 11:2 12:3 13:4 15:1 
4 1:1 2:0.25984026 4:1 5:1.3494382e-05 8:16 9:1 11:3 12:5 13:3 15:2 
4 2:0.54325622 4:1 5:1.0716127e-05 7:1 8:15 9:2 11:1 12:4 13:4 14:1 15:1 
4 2:0.5310742 4:1 5:1.3494382e-05 8:8 9:2 11:3 13:2 15:1 
4 4:1 5:1.3494382e-05 6:0.0026726903 8:13 9:1 12:3 13:4 14:1 15:3 
4 4:1 5:1.0120787e-05 6:0.00017243163 8:6 9:1 12:2 13:2 14:1 15:1 
4 2:0.4781015 4:1 5:7.2291334e-06 8:9 9:2 10:1 11:3 12:2 13:2 
4 2:0.12267569 5:1.3494382e-05 8:5 9:1 11:1 12:2 13:1 15:1 
4 0:1 1:1 2:0.32617466 4:1 5:1.3494382e-05 6:0.00051729489 8:16 9:1 10:1 11:2 12:5 13:3 14:1 15:1 
4 2:0.46075696 4:1 5:9.7834271e-06 8:8 9:1 11:2 12:4 13:2 
4 0:1 2:0.56319132 4:1 5:8.4339889e-06 8:6 9:1 11:2 12:2 13:2 
4 8:1 11:1 
4 2:0.50729539 4:1 5:1.3494382e-05 6:0.0020864227 8:25 9:3 10:3 11:2 12:1 13:5 14:1 15:4 
4 2:0.5740056 4:1 5:1.3494382e-05 6:0.0040004138 8:10 9:1 11:1 12:1 13:2 14:1 
4 2:0.50433424 4:1 5:1.3494382e-05 6:0.01248405 8:10 9:1 10:1 11:1 12:2 13:3 14:1 15:1 
4 2:0.51929086 4:1 5:1.3494382e-05 6:0.0012630617 8:8 9:1 10:1 11:2 13:1 14:4 
4 2:0.25662584 4:1 5:1.3494382e-05 8:7 9:1 10:1 11:2 12:1 13:1 15:2 
4 3:1 4:1 5:1.1245319e-05 6:0.00024140428 8:9 9:1 12:3 13:3 14:1 
4 8:4 9:1 11:1 
4 0:1 1:1 2:0.5740056 4:1 5:1.3494382e-05 8:12 9:1 10:1 11:2 12:2 13:3 
4 4:1 5:1.3494382e-05 6:0.0050694899 8:7 9:2 11:1 12:1 13:1 14:1 
4 4:1 5:1.3494382e-05 6:0.021191847 8:7 9:1 12:1 13:2 14:1 15:1 
4 4:1 5:1.3494382e-05 6:0.00012070214 8:6 11:1 12:2 13:1 14:1 15:1 
4 3:1 4:1 5:1.3494382e-05 8:3 9:1 12:1 13:1 
4 2:0.15888212 4:1 5:1.3494382e-05 6:6.8972652e-05 8:6 9:1 11:2 13:1 14:1 15:1 
4 2:0.74370386 4:1 5:1.3494382e-05 6:0.0073197227 8:11 10:2 11:1 12:1 13:2 14:2 15:1 
4 2:0.35516079 4:1 5:1.3494382e-05 6:0.011846053 8:6 9:1 10:1 11:1 12:1 13:1 14:1 
4 0:1 1:1 4:1 5:1.3494382e-05 8:6 9:1 11:1 12:2 13:1 
4 2:0.14206183 5:1.236985e-05 8:8 9:1 10:1 11:2 12:2 13:2 
4 0:1 1:1 2:0.16506932 5:1.3494382e-05 8:6 9:1 11:3 12:2 13:1 
4 2:0.48846474 4:1 5:1.3494382e-05 8:15 9:1 11:3 12:5 13:3 
4 2:0.52079538 4:1 5:1.3494382e-05 6:0.00043107908 8:9 9:1 11:2 12:2 13:2 14:1 
4 2:0.50896933 4:1 5:1.3494382e-05 8:6 9:1 11:2 12:1 13:2 
4 2:0.53934918 4:1 5:8.9962548e-06 8:10 10:1 11:1 12:3 13:3 15:1 
4 2:0.49233202 3:1 4:1 5:1.3494382e-05 6:0.00094837397 8:7 9:2 11:2 12:2 13:1 14:1 
4 2:0.74094932 4:1 5:1.1848726e-05 6:0.016967272 8:8 9:1 10:1 11:1 12:2 13:2 14:1 
4 1:1 8:5 9:1 11:3 12:1 15:1 
4 2:0.49534669 4:1 5:1.3494382e-05 7:1 8:6 9:1 11:1 12:1 13:1 14:1 
4 2:0.046524211 4:1 5:1.3494382e-05 6:0.00081042867 8:10 9:2 11:2 12:1 13:1 14:1 15:1 
4 2:0.66022128 4:1 5:1.3494382e-05 8:8 11:2 12:1 13:1 15:1 
4 2:0.22737325 4:1 5:1.290029e-05 8:9 9:1 11:2 12:2 13:3 
4 0:1 1:1 2:0.5277913 4:1 5:1.3494382e-05 8:8 10:1 11:2 12:2 13:1 
4 4:1 5:1.3494382e-05 8:14 9:1 12:4 13:3 15:3 
4 2:0.46216647 4:1 5:1.3494382e-05 6:0.0019139911 8:7 9:1 11:1 12:2 13:1 14:1 15:1 
4 5:1.3494382e-05 8:4 9:1 10:1 11:1 13:1 
4 2:0.11027155 4:1 5:1.3494382e-05 8:9 9:2 10:1 11:3 12:3 13:2 
4 4:1 5:1.3494382e-05 6:0.0001379453 8:8 9:1 10:1 12:2 13:2 14:1 15:1 
4 2:0.31691599 4:1 5:1.3494382e-05 8:13 9:3 11:3 12:2 13:2 15:1 
4 1:1 2:0.60862378 4:1 5:1.0683053e-05 8:12 9:3 10:1 11:5 12:3 13:3 
4 8:1 11:1 
4 2:0.3864773 4:1 5:1.3494382e-05 8:12 9:1 10:1 11:1 12:1 13:3 15:3 
4 2:0.41203447 4:1 5:1.3494382e-05 8:7 11:2 12:2 13:1 15:1 
4 2:0.077015405 4:1 5:1.3494382e-05 8:6 11:1 12:2 13:2 
4 1:1 2:0.48306646 3:1 4:1 5:1.3494382e-05 6:0.021191847 8:13 9:3 10:1 11:3 12:2 13:3 14:1 
4 0:1 2:0.90965571 4:1 5:1.3494382e-05 6:0.0037590096 8:13 9:1 11:2 12:3 13:3 14:1 15:2 
4 4:1 5:1.3494382e-05 8:9 9:1 11:1 12:3 13:2 15:2 
4 4:1 5:1.3494382e-05 8:4 13:3 
4 2:0.32111772 4:1 5:1.3494382e-05 8:10 9:3 10:1 11:2 12:1 13:3 15:2 
4 2:0.43912732 4:1 5:1.3494382e-05 6:3.4486326e-05 8:17 9:4 11:4 12:6 13:3 14:1 
4 2:0.57545644 3:1 4:1 5:1.3494382e-05 8:12 9:2 10:1 11:1 12:4 13:2 15:2 
4 2:0.67169332 4:1 5:1.3494382e-05 6:0.021191847 8:8 9:1 10:1 11:1 12:2 13:2 14:1 15:1 
4 0:1 1:1 4:1 5:4.4981274e-06 8:10 9:1 10:1 11:2 12:3 13:2 15:1 
4 8:2 9:1 12:1 
4 2:0.12843806 4:1 5:1.3494382e-05 8:7 9:1 11:2 12:1 13:1 15:1 
4 0:1 2:0.37440169 5:1.3494382e-05 6:0.01248405 8:6 9:1 11:2 13:1 14:1 
4 2:0.59511575 4:1 5:1.1245319e-05 8:17 9:1 11:2 12:5 13:4 
4 2:0.50181851 4:1 5:1.3494382e-05 8:15 9:2 11:1 12:5 13:5 15:1 
4 2:0.45858622 4:1 5:1.3494382e-05 8:11 9:1 11:2 12:2 13:4 
4 4:1 5:1.3494382e-05 6:0.00081042867 8:6 9:1 11:1 12:1 13:2 14:1 
4 1:1 4:1 5:1.3494382e-05 8:10 11:1 12:2 13:2 15:2 
4 0:1 1:1 2:0.46971845 5:1.0120787e-05 8:9 10:1 11:2 12:2 13:2 15:1 
4 0:1 1:1 2:0.30966365 5:1.3494382e-05 8:7 9:1 10:1 11:2 12:1 13:2 
4 1:1 2:0.22344852 4:1 5:1.3494382e-05 6:6.8972652e-05 8:10 9:1 10:1 11:2 12:2 13:1 14:1 15:1 
4 2:0.21922608 4:1 5:1.3494382e-05 8:6 9:1 10:1 11:1 12:1 13:1 15:1 
4 2:0.58577606 4:1 5:1.2744694e-05 8:27 9:4 10:1 11:2 12:5 13:6 15:4 
4 2:0.53596278 4:1 5:1.3494382e-05 6:0.00026726903 8:17 9:1 11:1 12:3 13:5 14:2 15:2 
4 4:1 5:1.3494382e-05 8:12 9:1 11:1 12:3 13:3 15:1 
4 2:0.52924692 5:1.3494382e-05 8:10 10:1 11:1 12:2 13:1 15:2 
4 0:1 2:0.14723375 4:1 5:1.3494382e-05 8:13 9:2 11:1 12:3 13:4 15:2 
4 2:0.7461302 5:1.3494382e-05 8:9 9:1 11:2 13:1 
4 2:0.32737441 5:1.3494382e-05 8:4 9:1 11:2 12:1 13:1 
4 2:0.41692936 4:1 5:1.3494382e-05 8:13 9:1 10:1 11:2 12:4 13:2 
4 2:0.33335641 4:1 5:1.3494382e-05 6:0.016967272 8:10 9:1 10:1 11:2 12:1 13:2 14:1 15:2 
4 0:1 2:0.35453959 6:0.012165052 8:9 9:2 10:1 11:2 14:2 15:1 
4 1:1 2:0.1716145 3:1 4:1 5:1.3494382e-05 8:7 9:2 11:1 12:1 13:2 
4 2:0.39134446 4:1 5:1.3494382e-05 6:0.0055925326 8:13 11:1 12:4 13:3 14:3 
4 2:0.77960414 4:1 5:1.3494382e-05 8:10 9:1 10:1 11:1 12:1 13:1 15:2 
4 2:0.3608328 5:1.3494382e-05 6:0.0013966962 8:9 9:1 10:1 11:1 12:1 13:2 14:1 15:1 
4 0:1 4:1 5:1.3494382e-05 8:9 9:1 12:2 13:3 
4 4:1 5:1.3494382e-05 8:5 12:1 13:1 
4 2:0.5753923 4:1 5:1.3494382e-05 8:5 10:1 11:1 12:1 13:1 
4 2:0.42663691 4:1 5:1.3494382e-05 8:6 9:1 11:2 12:2 13:1 
4 0:1 1:1 4:1 5:1.3494382e-05 8:8 11:1 12:2 13:2 15:1 
4 2:0.77065147 4:1 5:1.3494382e-05 8:5 9:1 10:1 11:1 12:1 13:1 
4 4:1 5:1.0120787e-05 8:6 12:3 13:2 
4 2:0.45514967 4:1 5:1.3494382e-05 8:9 9:2 10:1 11:2 12:2 13:1 15:1 
4 2:0.21398025 4:1 5:1.3494382e-05 8:8 11:1 12:3 13:3 
4 2:0.25916053 4:1 5:1.3494382e-05 8:5 11:1 12:2 13:1 15:1 
4 2:0.46904521 4:1 5:1.3494382e-05 6:0.0033279305 8:12 9:1 11:1 12:3 13:3 14:1 15:2 
4 2:0.73227967 8:3 10:1 11:2 
4 2:0.23008054 5:1.3494382e-05 8:6 11:2 12:2 13:1 
4 2:0.59245086 4:1 5:1.3494382e-05 8:7 11:2 12:1 13:2 
4 8:2 11:1 
4 2:0.37185193 4:1 5:1.3494382e-05 6:7.7594234e-05 8:16 9:1 10:1 11:2 12:3 13:3 14:2 
4 0:1 1:1 2:0.80677661 4:1 5:1.3494382e-05 6:0.022278167 8:13 9:1 11:2 12:3 13:4 14:1 15:2 
4 2:0.32342552 4:1 5:1.3494382e-05 8:6 9:1 11:2 12:3 13:1 
4 4:1 5:1.3494382e-05 8:6 13:2 
4 2:0.14755971 4:1 5:1.3494382e-05 8:7 9:1 10:1 11:1 12:1 13:1 15:1 
4 2:0.21728606 4:1 5:1.3494382e-05 6:0.0028796082 8:10 9:4 10:1 11:4 13:1 14:1 15:1 
4 2:0.64014925 4:1 5:1.3494382e-05 6:0.00010345898 8:10 9:2 10:1 11:2 12:1 13:2 14:1 15:2 
4 2:0.41419031 4:1 5:1.3494382e-05 8:5 9:1 11:1 12:1 13:1 
4 0:1 1:1 2:0.19158025 4:1 5:1.3494382e-05 8:18 9:3 11:3 12:6 13:5 
4 0:1 1:1 2:0.45380762 6:0.00034486326 8:7 11:3 12:2 14:1 
4 0:1 1:1 4:1 5:1.3494382e-05 6:5.1729489e-05 8:15 9:1 10:1 11:1 12:3 13:4 14:1 15:2 
4 1:1 4:1 5:1.3494382e-05 8:6 11:1 12:1 13:3 
4 2:0.57529366 5:1.3494382e-05 6:0.0029830672 8:7 9:1 11:1 13:1 14:2 
4 4:1 5:1.3494382e-05 6:0.00015518847 8:7 9:1 12:2 13:2 14:1 15:1 
4 2:0.53934918 4:1 5:1.3494382e-05 6:0.0083112046 8:15 9:1 10:1 11:1 12:3 13:4 14:1 
4 2:0.3610908 4:1 5:1.3494382e-05 6:0.0040521433 8:4 11:1 12:1 13:1 14:1 
4 0:1 1:1 2:0.71073071 4:1 5:1.3494382e-05 8:14 9:1 10:1 11:3 12:3 13:2 15:3 
4 2:0.35310594 8:4 11:2 12:1 15:1 
4 4:1 5:1.3494382e-05 6:0.0042590613 8:7 9:1 11:1 12:1 13:2 14:1 
4 4:1 5:1.3494382e-05 6:0.0066213746 8:10 12:3 13:2 14:2 
4 2:0.28164757 4:1 5:1.3494382e-05 6:0.0001379453 8:7 11:1 12:2 13:1 14:1 15:1 
4 1:1 4:1 5:1.3494382e-05 8:7 12:2 13:2 
4 2:0.45327251 5:1.3494382e-05 6:0.00029313377 8:10 9:1 11:2 12:3 13:1 14:1 15:2 
4 2:0.50297809 4:1 5:1.3494382e-05 8:6 9:1 11:2 12:2 13:1 15:1 
3.343543056779825 4:1 5:1.3494382e-05 8:6 9:1 11:2 12:2 13:2 
4 4:1 5:1.3494382e-05 6:1.7243163e-05 8:11 12:3 13:3 14:1 
4 2:0.63543494 4:1 5:1.3494382e-05 6:0.00018967479 8:10 11:1 12:2 13:2 14:1 15:2 
4 2:0.22408693 4:1 5:1.3494382e-05 6:0.0061299445 8:12 11:1 12:3 13:3 14:2 15:1 
4 2:0.34329039 5:1.3494382e-05 8:7 9:1 10:2 11:2 12:1 13:1 
4 1:1 3:1 4:1 5:8.9962548e-06 8:9 9:1 10:1 11:1 12:3 13:2 15:1 
4 5:9.4697419e-06 6:0.0013104804 8:8 12:2 13:2 14:1 
4 1:1 2:0.54325622 4:1 5:1.3494382e-05 8:8 9:1 11:2 12:1 13:4 
4 4:1 5:1.0120787e-05 8:5 9:1 12:2 13:2 
4 2:0.55232459 4:1 5:1.3494382e-05 6:0.0041469807 8:24 9:1 10:1 11:1 12:7 13:5 14:4 15:1 
4 4:1 5:1.3494382e-05 6:0.02567507 8:5 11:1 12:2 13:1 14:1 
1.507422256225999 2:0.83385872 3:1 4:1 5:1.3494382e-05 8:17 9:1 10:1 11:1 12:4 13:5 15:1 
4 0:1 2:0.7403537 4:1 5:1.3494382e-05 8:7 11:1 12:1 13:3 
4 2:0.37612697 4:1 5:1.3494382e-05 6:5.1729489e-05 8:9 9:2 10:1 11:3 13:1 14:1 15:1 
4 2:0.44434661 4:1 5:1.3494382e-05 6:0.029158189 8:18 9:2 10:1 11:2 12:4 13:5 14:1 15:2 
4 2:0.45489276 4:1 5:1.3494382e-05 8:11 9:1 11:2 12:2 13:3 15:1 
4 2:0.47892417 4:1 5:1.3494382e-05 6:0.00025864745 8:15 9:2 11:1 12:3 13:5 14:1 15:1 
4 1:1 2:0.58209491 4:1 5:1.3494382e-05 8:18 9:3 10:2 11:5 12:2 13:2 15:3 
4 2:0.55605374 4:1 5:1.3494382e-05 8:13 9:2 10:2 11:2 13:4 
4 2:0.43681419 4:1 5:1.3494382e-05 6:0.0016553437 8:12 9:2 11:2 12:2 13:3 14:2 15:1 
4 2:0.33335641 4:1 5:1.3494382e-05 6:0.0026726903 8:13 9:2 10:2 11:2 12:1 13:3 14:2 15:1 
4 3:1 4:1 5:1.3494382e-05 8:3 9:1 12:1 13:1 
4 2:0.66671281 4:1 5:1.3494382e-05 8:10 9:2 10:1 11:1 12:1 13:2 15:1 
4 2:0.01871203 8:2 9:1 11:2 
4 2:0.69645918 4:1 5:1.3494382e-05 6:0.0038279822 8:15 9:3 11:1 12:1 13:4 14:1 15:1 
4 1:1 2:0.17534105 4:1 5:1.3494382e-05 6:0.0048798152 8:18 9:2 10:1 11:3 12:1 13:2 14:1 15:2 
4 2:0.51222612 3:1 4:1 5:1.3494382e-05 6:0.009621685 8:14 9:1 11:1 12:3 13:3 14:2 
4 2:0.1374455 5:1.3494382e-05 8:5 9:1 11:2 13:1 
4 2:0.39139153 4:1 5:1.3494382e-05 8:18 9:3 11:3 12:4 13:4 15:3 
4 2:0.3608328 5:1.3494382e-05 8:4 9:1 10:1 11:1 12:1 13:1 
4 5:1.3494382e-05 8:3 9:1 10:1 11:1 13:1 
4 2:0.60441382 4:1 5:1.3494382e-05 6:0.00031037694 8:10 9:1 10:1 11:2 12:1 13:2 14:1 15:1 
4 2:0.60121851 5:1.3494382e-05 6:0.0085181226 8:14 9:3 10:1 11:3 12:2 13:1 14:3 15:1 
4 2:0.43386958 5:1.3494382e-05 6:6.8972652e-05 8:13 9:2 10:3 11:3 12:2 13:1 14:1 15:2 
4 2:0.27616335 4:1 5:1.3494382e-05 6:6.8972652e-05 8:8 9:1 10:2 11:2 13:1 14:1 15:1 
4 8:4 9:2 10:1 11:2 12:1 
4 2:0.57222976 4:1 5:8.4339889e-06 8:9 9:1 11:2 12:3 13:2 
4 2:0.51173788 4:1 5:1.3494382e-05 7:1 8:12 9:2 10:1 11:1 12:2 13:3 14:1 15:1 
4 2:0.015770438 4:1 5:1.3494382e-05 8:5 9:2 11:2 12:1 13:2 
4 4:1 5:1.3494382e-05 6:6.8972652e-05 8:10 9:2 10:2 11:1 12:2 13:2 14:1 
4 2:0.17882394 3:1 4:1 5:1.3494382e-05 6:0.0020174501 8:9 9:2 11:2 12:4 13:1 14:1 15:1 
4 2:0.34004305 4:1 5:1.3494382e-05 8:9 9:2 10:2 11:2 12:2 13:2 
4 4:1 5:1.3494382e-05 8:12 9:2 12:3 13:4 
4 2:0.61717532 4:1 5:1.3494382e-05 8:13 9:2 10:1 11:2 13:5 
4 2:0.74370386 4:1 5:1.3494382e-05 6:0.0020864227 8:25 9:3 10:1 11:1 12:7 13:7 14:1 15:2 
4 2:0.77065147 4:1 5:1.3494382e-05 8:10 9:1 10:2 11:1 12:2 13:2 15:1 
4 2:0.57158711 4:1 5:1.3494382e-05 6:0.0032302192 8:36 9:3 10:4 11:2 12:5 13:4 14:6 15:8 
4 8:2 9:2 11:2 
4 2:0.36432046 3:1 4:1 5:1.3494382e-05 6:0.00088629858 7:1 8:31 9:10 10:4 11:5 12:3 13:4 14:5 15:2 
4 2:0.45024673 4:1 5:1.3494382e-05 8:8 9:2 10:2 11:2 13:2 15:1 
4 2:0.16495722 4:1 5:1.1245319e-05 8:5 9:2 11:1 13:3 
4 2:0.54618062 4:1 5:1.3494382e-05 6:0.02567507 8:17 9:4 11:2 12:1 13:4 14:1 15:2 
4 2:0.66671281 4:1 5:1.3494382e-05 6:0.0003276201 8:12 9:1 10:1 11:1 12:2 13:3 14:1 
0.6007243869296277 2:0.49769891 4:1 5:1.3494382e-05 8:14 9:3 10:1 11:4 12:1 13:3 15:1 
4 4:1 5:1.236985e-05 8:5 9:1 12:2 13:2 
4 2:0.41692936 4:1 5:1.3494382e-05 6:0.019226127 8:8 9:1 11:2 12:2 13:2 14:1 
4 2:0.076714551 4:1 5:1.3494382e-05 8:7 9:1 10:1 11:2 12:1 13:1 
4 2:0.62506726 4:1 5:1.3494382e-05 6:0.0062334035 7:1 8:25 9:4 11:2 12:3 13:5 14:2 15:2 
4 2:0.4215765 4:1 5:1.3494382e-05 6:0.0084750147 8:13 9:2 10:1 11:3 12:2 13:2 14:2 15:2 
4 2:0.44748568 5:1.0120787e-05 8:11 9:2 10:1 11:2 12:2 13:2 15:2 
4 2:0.50193486 4:1 5:1.3494382e-05 6:0.0061213229 8:11 9:1 11:2 12:3 13:2 14:1 15:1 
4 4:1 5:1.1566613e-05 7:1 8:16 9:3 10:1 12:2 13:3 14:1 15:2 
4 2:0.19864089 4:1 5:1.3494382e-05 6:0.00054315964 8:9 9:1 11:2 12:2 13:1 14:2 15:2 
4 2:0.18078567 4:1 5:1.3494382e-05 6:0.0050694899 8:8 9:1 11:2 13:1 14:1 15:1 
4 2:0.26409851 5:1.3494382e-05 8:5 9:1 10:1 11:1 12:1 13:1 
4 4:1 5:1.3494382e-05 8:11 9:2 11:1 12:4 13:2 15:2 
4 2:0.30443716 4:1 5:1.3494382e-05 6:0.018070835 8:11 9:3 11:4 13:1 14:1 15:2 
4 2:0.30228891 4:1 5:1.3494382e-05 8:6 9:1 10:1 11:1 13:1 15:2 
4 2:0.48112705 4:1 5:1.3494382e-05 6:0.003810739 8:13 9:2 10:1 11:1 12:3 13:4 14:1 15:2 
4 2:0.092159373 8:14 9:14 11:14 
4 2:0.049805825 5:1.3494382e-05 6:0.00037934959 8:3 9:1 11:1 13:1 14:1 
4 2:0.27824267 4:1 5:1.3494382e-05 8:8 9:3 11:3 12:1 13:1 
4 4:1 5:1.3494382e-05 8:4 9:1 11:1 12:2 13:1 
4 2:0.054554473 4:1 5:1.3494382e-05 8:5 9:1 10:1 11:2 12:1 13:1 
4 4:1 5:1.3494382e-05 8:5 9:1 12:1 13:2 
4 2:0.18665292 4:1 5:1.3494382e-05 6:0.019226127 8:8 9:1 11:2 12:1 13:2 14:1 
4 0:1 2:0.29630743 4:1 5:1.3494382e-05 8:12 9:2 10:1 11:1 12:3 13:4 15:1 
4 2:0.40526729 4:1 5:1.3494382e-05 8:11 9:1 11:1 12:3 13:4 15:1 
4 1:1 4:1 5:1.1245319e-05 8:13 9:2 11:1 12:4 13:3 15:1 
4 2:0.51222612 4:1 5:1.3494382e-05 6:0.00028163833 8:10 9:3 11:1 12:4 13:1 14:3 
4 2:0.47634609 3:1 4:1 5:1.3494382e-05 8:13 9:3 11:2 12:3 13:3 15:1 
4 2:0.19779886 4:1 5:1.3494382e-05 8:12 9:2 10:1 11:1 12:3 13:4 15:1 
4 2:0.37022102 8:12 9:2 10:2 11:4 12:3 15:1 
4 2:0.32586469 4:1 5:1.3494382e-05 8:5 9:2 11:1 12:2 13:2 
4 2:0.35278955 4:1 5:1.3494382e-05 8:9 9:2 11:3 12:2 13:1 15:2 
4 4:1 5:1.3494382e-05 8:13 9:2 12:4 13:5 
4 2:0.27945951 4:1 5:1.0120787e-05 6:0.00059057834 8:19 9:3 11:3 12:2 13:2 14:4 15:2 
4 4:1 5:1.3494382e-05 6:0.00018392707 7:1 8:11 9:2 12:3 13:2 14:3 
4 2:0.34218812 5:1.3494382e-05 6:0.0026726903 8:8 9:2 10:1 11:3 12:1 13:1 14:1 15:1 
4 2:0.19433208 4:1 5:1.3494382e-05 6:0.00028451219 8:10 9:3 10:1 11:3 13:1 14:2 15:1 
4 2:0.16158477 4:1 5:1.3494382e-05 6:0.0061213229 8:11 9:3 11:3 13:3 14:2 
4 2:0.38544021 5:1.3494382e-05 8:6 9:1 11:2 12:1 13:1 15:1 
4 2:0.16659152 6:0.011251164 8:7 9:2 10:1 11:3 14:2 15:1 
4 2:0.42401075 4:1 5:1.3494382e-05 6:0.0050350036 8:29 9:6 10:1 11:4 12:5 13:7 14:3 15:1 
4 2:0.40830285 4:1 5:1.3494382e-05 8:8 9:3 10:1 11:1 12:2 13:2 
4 2:0.37631505 4:1 5:1.3494382e-05 8:15 9:3 10:1 11:3 12:4 13:5 
4 3:1 4:1 5:1.0602729e-05 8:3 9:1 12:1 13:2 
4 2:0.31608526 4:1 5:1.3494382e-05 7:1 8:7 9:2 10:2 11:1 12:1 13:1 14:1 15:1 
4 2:0.58819919 4:1 5:1.2943591e-05 6:0.012466807 8:28 9:4 10:2 11:4 12:6 13:7 14:1 15:3 
4 2:0.50772291 4:1 5:1.3494382e-05 8:7 9:1 11:2 12:2 13:2 
4 4:1 5:1.3494382e-05 7:1 8:6 9:2 12:1 13:2 14:1 
4 2:0.29119174 4:1 5:1.3494382e-05 6:0.018070835 8:17 9:2 10:1 11:1 12:3 13:2 14:1 15:3 
4 2:0.26602686 4:1 5:1.3494382e-05 6:0.011846053 8:9 9:1 10:3 11:2 12:1 13:2 14:1 
4 8:4 10:1 11:1 
4 2:0.39480557 4:1 5:1.3494382e-05 8:11 9:2 10:1 11:3 12:2 13:2 15:1 
4 2:0.1956589 4:1 5:1.3494382e-05 8:8 9:4 11:5 13:1 
4 4:1 5:1.3494382e-05 8:4 9:1 11:1 13:1 
4 2:0.16258453 4:1 5:1.3494382e-05 6:3.4486326e-05 8:9 9:2 10:1 11:3 12:2 13:2 14:1 
4 2:0.22082417 4:1 5:6.7471911e-06 8:8 9:1 10:1 11:2 12:1 13:1 
4 2:0.41015273 4:1 5:1.3494382e-05 6:0.0020864227 8:11 9:3 10:2 11:2 13:2 14:2 15:1 
4 2:0.5399321 4:1 5:1.3494382e-05 6:0.013777287 8:14 9:2 10:1 11:2 12:3 13:1 14:2 15:3 
4 2:0.62046826 8:1 9:1 11:1 
4 0:1 1:1 2:0.33158931 4:1 5:1.3494382e-05 6:5.1729489e-05 8:14 9:2 10:2 11:3 12:1 13:2 14:1 15:2 
4 2:0.26243395 4:1 5:1.3494382e-05 6:0.014984309 8:16 9:1 10:1 11:1 12:2 13:4 14:2 15:2 
4 2:0.33236889 4:1 5:1.3494382e-05 6:0.0054833259 8:5 9:1 10:2 11:1 13:1 14:1 
4 2:0.31608526 4:1 5:1.3494382e-05 8:5 9:1 10:1 11:1 13:2 
4 2:0.65221832 6:0.0019312343 8:5 9:1 10:1 11:2 14:1 15:1 
4 2:0.29624813 4:1 5:1.1245319e-05 8:8 9:2 10:1 11:2 13:3 15:1 
4 2:0.5210502 6:0.0019139911 8:5 9:1 10:1 11:2 14:1 15:1 
4 4:1 5:1.3494382e-05 8:7 9:2 12:2 13:4 
4 2:0.35683689 5:1.3494382e-05 6:0.00084491499 8:15 9:2 10:2 11:3 12:1 13:1 14:3 15:1 
4 2:0.19104074 4:1 5:1.3494382e-05 8:5 9:2 11:3 12:1 13:1 
4 2:0.29866709 4:1 5:1.3494382e-05 6:0.00029313377 8:8 9:2 10:1 11:2 12:1 13:2 14:1 15:1 
4 2:0.46487443 4:1 5:1.3494382e-05 8:6 9:1 11:2 12:1 13:2 
4 2:0.34628593 4:1 5:1.3494382e-05 8:22 9:4 10:1 11:3 12:6 13:5 15:2 
4 2:0.25525586 4:1 5:1.3494382e-05 8:21 9:3 10:3 11:3 12:3 13:3 15:2 
4 2:0.094461451 4:1 5:1.3494382e-05 6:0.00017243163 8:10 9:2 10:1 11:3 12:2 13:1 14:1 15:1 
4 2:0.11664237 4:1 5:1.3494382e-05 8:15 9:3 11:1 12:3 13:5 15:1 
4 2:0.12227391 4:1 5:1.3494382e-05 8:10 9:2 11:2 12:1 13:2 15:1 
4 2:0.32887144 4:1 5:1.3494382e-05 6:1.7243163e-05 8:9 9:1 11:2 13:2 14:1 
4 2:0.61088011 4:1 5:1.3494382e-05 8:22 9:2 11:1 12:5 13:7 15:1 
4 2:0.44156276 4:1 5:1.3494382e-05 6:7.7594234e-05 8:10 9:2 10:2 11:2 12:1 13:1 14:2 15:1 
4 2:0.39535748 4:1 5:1.3494382e-05 6:0.00010345898 8:8 9:2 11:2 12:1 13:2 14:1 
4 2:0.43908627 4:1 5:1.3494382e-05 6:0.012518536 8:22 9:3 10:3 11:3 12:3 13:4 14:1 15:2 
4 2:0.357898 4:1 5:1.3494382e-05 6:0.0010432114 8:16 9:2 10:1 11:2 12:3 13:3 14:2 15:3 
4 2:0.053896631 4:1 5:1.3494382e-05 8:5 9:2 10:1 11:2 12:1 13:1 
4 2:0.45438197 4:1 5:1.3494382e-05 8:9 9:2 10:2 11:3 12:1 13:2 15:1 
4 2:0.43682704 4:1 5:9.9741086e-06 8:9 9:1 10:1 11:2 12:1 13:3 
4 2:0.20502795 4:1 5:1.1245319e-05 8:11 9:1 11:1 12:4 13:3 
4 2:0.88029984 4:1 5:1.3494382e-05 6:0.0009828603 8:14 9:2 11:1 12:3 13:3 14:2 15:1 
4 2:0.65747746 4:1 5:1.3494382e-05 6:0.0017501811 8:18 9:2 10:2 11:2 12:2 13:4 14:2 15:3 
4 2:0.49221365 4:1 5:1.3494382e-05 6:0.00028451219 8:14 9:2 11:2 12:1 13:2 14:2 15:1 
4 2:0.64984695 5:1.3494382e-05 7:1 8:6 9:1 11:1 13:1 14:1 
4 2:0.32879797 4:1 5:1.3494382e-05 8:5 9:1 11:1 12:2 13:2 
4 2:0.33013864 4:1 5:1.3494382e-05 8:13 9:1 10:1 11:1 12:2 13:3 15:2 
4 2:0.23401977 4:1 5:1.3494382e-05 6:0.0004655654 8:11 9:1 11:1 12:2 13:2 14:2 15:1 
4 2:0.36626619 4:1 5:1.3494382e-05 6:0.029158189 8:14 9:2 11:4 12:2 13:2 14:1 
4 2:0.29817037 4:1 5:1.1245319e-05 8:10 9:1 10:1 11:1 12:2 13:4 15:1 
4 2:0.54028697 5:1.3494382e-05 8:9 9:2 10:1 11:2 12:1 13:2 15:1 
4 2:0.31608526 4:1 5:1.3494382e-05 8:16 9:2 10:1 11:1 12:4 13:6 15:1 
4 4:1 5:1.3494382e-05 8:10 9:2 12:3 13:3 15:1 
4 4:1 5:1.3494382e-05 8:14 9:2 12:3 13:5 15:1 
4 4:1 5:1.3494382e-05 6:0.00087077974 8:6 9:1 12:1 13:1 14:2 15:1 
4 2:0.35767557 4:1 5:9.6388445e-06 8:7 9:2 11:1 12:1 13:3 
4 2:0.5740056 5:1.3494382e-05 6:0.017967376 8:4 9:1 11:1 13:1 14:1 
4 8:4 9:1 11:2 15:2 
4 2:0.32059414 4:1 5:1.3494382e-05 6:0.00017243163 8:7 9:1 10:1 11:2 12:1 13:1 14:1 15:1 
4 2:0.13499987 4:1 5:1.3494382e-05 6:0.0017674242 8:6 9:1 11:1 12:1 13:1 14:2 
4 0:1 2:0.37902437 4:1 5:1.3494382e-05 8:11 9:2 10:2 11:2 12:2 13:2 15:1 
4 2:0.58724229 4:1 5:1.3494382e-05 8:7 9:1 10:1 11:2 12:1 13:1 15:1 
4 2:0.17259073 4:1 5:8.67496e-06 6:0.00017243163 8:10 9:2 10:1 11:2 12:1 13:2 14:1 
4 2:0.36374814 5:1.3494382e-05 6:0.0016725868 8:10 9:1 10:1 11:2 12:2 13:1 14:1 15:1 
4 4:1 5:1.3494382e-05 6:0.0091992275 8:11 9:2 12:2 13:3 14:2 15:3 
4 1:1 2:0.77960414 4:1 5:1.3494382e-05 8:16 9:1 10:2 11:2 12:3 13:4 15:1 
4 5:4.4981274e-06 6:0.018070835 8:4 9:1 13:1 14:1 
4 2:0.31613331 4:1 5:1.3494382e-05 6:0.00058626754 8:11 9:3 10:1 11:3 12:1 13:1 14:3 15:1 
4 2:0.43376465 5:1.1418323e-05 6:0.0040262786 7:1 8:7 9:4 10:1 11:2 12:1 13:1 14:2 
4 4:1 5:1.3494382e-05 8:7 9:2 11:1 12:1 13:2 15:1 
4 1:1 2:0.35582567 4:1 5:1.3494382e-05 6:2.5864745e-05 8:25 9:2 10:1 11:2 12:5 13:7 14:2 15:2 
4 2:0.27489099 4:1 5:8.9962548e-06 8:7 9:1 11:2 12:2 13:2 15:1 
4 2:0.2982929 4:1 5:1.3494382e-05 6:9.4837397e-05 8:13 9:2 10:1 11:2 12:2 13:3 14:2 15:1 
4 2:0.27180666 4:1 5:1.3494382e-05 8:8 9:1 11:1 12:1 13:2 15:1 
4 2:0.1248955 4:1 5:1.3494382e-05 8:5 9:1 11:2 12:1 13:1 
4 2:0.24605503 4:1 5:1.3494382e-05 8:10 9:3 10:1 11:3 12:1 13:3 
4 2:0.24030475 4:1 5:1.3494382e-05 8:12 9:2 11:2 12:3 13:2 15:1 
4 2:0.25165551 4:1 5:1.3494382e-05 6:0.00037934959 8:10 9:2 10:3 11:2 12:1 13:2 14:1 
4 2:0.3974356 4:1 5:1.3494382e-05 8:7 9:1 11:1 12:1 13:2 
4 2:0.061993042 8:5 9:1 11:2 
4 2:0.31669757 4:1 5:1.2650983e-05 6:0.009828603 8:21 9:1 11:1 12:5 13:4 14:2 15:4 
4 5:8.9962548e-06 8:10 9:3 12:3 13:1 
4 2:0.13171767 4:1 5:1.3494382e-05 6:3.4486326e-05 8:9 9:1 10:1 11:1 12:2 13:3 14:1 
4 2:0.38183919 4:1 5:1.3494382e-05 6:3.4486326e-05 8:7 9:1 10:1 11:1 12:1 13:2 14:1 15:1 
4 5:1.3494382e-05 8:7 9:1 10:3 12:1 13:2 15:1 
4 4:1 5:1.3494382e-05 6:0.0020174501 8:10 9:1 12:1 13:3 14:1 15:1 
4 4:1 5:1.3494382e-05 8:16 9:2 12:3 13:5 15:3 
4 4:1 5:1.3494382e-05 8:4 9:1 10:1 13:3 
4 2:0.20885544 4:1 5:6.7471911e-06 8:9 9:2 11:3 12:1 13:1 15:1 
4 2:0.28608736 6:0.0042590613 8:6 9:1 11:3 12:1 14:1 15:1 
4 2:0.64885999 4:1 5:1.3494382e-05 6:0.019226127 8:15 9:2 10:1 11:2 12:3 13:3 14:1 15:3 
4 2:0.47003514 4:1 5:1.3494382e-05 6:0.00017243163 8:9 9:2 10:1 11:2 12:1 13:1 14:1 15:2 
4 2:0.29466875 4:1 5:1.3494382e-05 8:6 9:2 11:1 12:1 13:2 15:1 
4 2:0.29903574 3:1 4:1 5:1.3494382e-05 6:0.018070835 8:18 9:4 10:2 11:2 12:3 13:2 14:1 15:4 
4 4:1 5:7.5145188e-06 8:12 9:2 12:3 13:5 
4 2:0.33079426 4:1 5:1.3494382e-05 6:0.01095803 8:10 9:2 10:2 11:3 12:1 13:1 14:2 15:1 
4 2:0.1697968 4:1 5:1.3494382e-05 6:0.0048740674 8:12 9:4 11:4 13:1 14:3 15:4 
4 2:0.29819489 6:0.00012070214 8:2 9:1 11:1 14:1 
4 2:0.15079379 8:2 9:1 11:2 
4 3:1 4:1 5:1.3494382e-05 8:8 9:2 12:2 13:4 15:1 
4 2:0.21870342 5:3.8555378e-06 6:1.7243163e-05 8:5 9:1 11:1 13:1 14:1 15:1 
4 2:0.61536513 8:5 9:3 10:1 11:3 15:1 
4 2:0.42762307 4:1 5:8.9962548e-06 8:7 9:1 11:2 12:1 13:2 15:1 
4 2:0.52015546 4:1 5:1.3494382e-05 8:6 9:1 11:2 12:1 13:2 
4 0:1 2:0.26885295 4:1 5:1.3494382e-05 8:5 9:1 11:1 13:2 15:1 
4 2:0.76352184 4:1 5:1.3494382e-05 6:0.006242025 7:1 8:13 9:3 10:1 11:1 12:2 13:4 14:2 15:1 
4 2:0.28369634 4:1 5:1.3494382e-05 8:4 9:1 10:1 11:1 13:1 
4 2:0.2174365 4:1 5:1.3494382e-05 8:6 9:1 10:1 11:1 12:1 13:2 
4 2:0.21033577 4:1 5:1.3494382e-05 6:0.0020864227 8:6 9:1 10:2 11:2 13:1 14:1 
4 2:0.34704341 4:1 5:1.3494382e-05 6:0.00064661862 8:18 9:4 10:3 11:4 12:1 13:2 14:4 15:1 
4 2:0.1712056 4:1 5:1.3494382e-05 6:3.4486326e-05 8:12 9:1 11:2 12:3 13:2 14:1 15:2 
4 2:0.45350533 4:1 5:1.3494382e-05 8:16 9:4 10:2 11:3 12:2 13:3 15:2 
4 2:0.31937729 7:1 8:8 9:2 11:2 12:2 14:1 15:2 
4 2:0.069885656 4:1 5:1.3494382e-05 8:9 9:2 11:1 12:4 13:3 
4 2:0.38034331 5:1.3494382e-05 6:3.4486326e-05 8:5 9:1 11:2 12:1 13:1 14:1 
4 2:0.076959516 4:1 5:1.3494382e-05 8:12 9:2 10:1 11:1 12:2 13:4 
4 2:0.1956158 4:1 5:1.3494382e-05 6:0.011846053 8:12 9:1 10:1 11:2 12:3 13:2 14:1 15:2 
4 4:1 5:1.3494382e-05 8:9 12:2 13:2 
4 2:0.056422035 4:1 5:1.3494382e-05 6:0.0033193089 8:15 9:2 10:1 11:1 12:1 13:3 14:2 15:1 
4 2:0.26714058 4:1 5:1.3494382e-05 6:0.0059230265 7:1 8:24 9:4 11:2 12:6 13:5 14:2 15:4 
4 2:0.22768404 4:1 5:1.1470225e-05 6:0.003276201 7:1 8:32 9:7 10:2 11:4 12:4 13:5 14:6 15:2 
4 2:0.1833521 4:1 5:1.3494382e-05 8:11 9:2 11:3 12:3 13:2 15:1 
4 2:0.17417371 4:1 5:1.3494382e-05 8:7 9:2 11:3 12:2 13:1 
4 2:0.34969885 4:1 5:1.3494382e-05 8:9 9:1 11:1 12:1 13:2 15:1 
4 2:0.47737896 4:1 5:1.3494382e-05 8:14 9:1 11:2 12:4 13:3 15:1 
4 4:1 5:1.3494382e-05 8:11 9:2 10:1 11:1 12:2 13:4 15:1 
4 2:0.39143052 4:1 5:1.3494382e-05 6:0.0013104804 8:10 9:1 11:1 12:2 13:4 14:1 15:1 
4 2:0.32660306 4:1 5:1.3494382e-05 6:1.7243163e-05 8:9 9:2 10:2 11:3 12:1 13:1 14:1 
4 2:0.48811079 4:1 5:1.3494382e-05 6:0.029158189 8:15 9:2 11:2 12:2 13:5 14:1 15:2 
4 2:0.25002515 6:0.001112184 8:10 9:1 10:1 11:2 12:1 14:2 15:1 
4 2:0.20230443 4:1 5:1.3494382e-05 6:5.1729489e-05 8:7 9:1 10:1 11:2 13:1 14:1 15:1 
4 2:0.18617807 6:3.4486326e-05 8:3 9:1 11:1 14:1 15:1 
4 2:0.085918925 4:1 5:1.3494382e-05 8:9 9:2 10:1 11:2 12:1 13:2 15:2 
4 2:0.33013864 4:1 5:1.3494382e-05 6:0.00025864745 8:8 9:2 11:1 12:3 13:2 14:1 
4 2:0.2761623 5:1.3494382e-05 6:0.0042590613 8:6 9:1 10:1 11:2 13:1 14:1 15:1 
4 1:1 2:0.22530539 3:1 4:1 5:1.3494382e-05 8:14 9:4 10:2 11:3 12:2 13:4 
4 2:0.39495425 4:1 5:1.3494382e-05 6:0.0053798669 8:17 9:2 10:1 11:1 12:3 13:5 14:1 
4 2:0.2215306 4:1 5:1.3494382e-05 8:14 9:2 10:2 11:2 12:3 13:4 15:1 
4 2:0.33104698 4:1 5:1.3494382e-05 8:6 9:2 11:2 12:1 13:2 
4 2:0.31669757 5:1.3494382e-05 6:0.00040521433 8:6 10:1 11:1 13:1 14:2 15:1 
4 2:0.073509046 4:1 5:1.3494382e-05 6:3.4486326e-05 7:1 8:8 9:3 11:1 13:2 14:2 15:1 
4 5:1.3494382e-05 8:3 9:1 13:1 
4 2:0.28973263 4:1 5:1.3494382e-05 6:0.0020174501 8:15 9:2 10:2 11:1 12:2 13:3 14:3 15:1 
4 1:1 2:0.40326734 4:1 5:1.3494382e-05 6:0.0076272258 8:34 9:4 10:1 11:3 12:8 13:7 14:3 15:4 
4 2:0.5489979 4:1 5:1.3494382e-05 6:0.00018967479 8:17 9:2 10:1 11:1 13:7 14:2 15:2 
4 2:0.35969048 3:1 4:1 5:1.3494382e-05 8:2 9:1 11:1 13:1 
4 2:0.266642 4:1 5:1.2594757e-05 6:0.011846053 8:42 9:12 10:3 11:10 12:7 13:10 14:1 15:2 
